svm_type epsilon_svr
kernel_type rbf
gamma 0.05
nr_class 2
total_sv 459
rho -5.20581
probA 0.786172
SV
-2.064931330731709 1:-0.0602632 2:0.64813 3:0.598425 4:0.192673 5:-0.239854 6:0.740157 7:-0.647662 8:-0.674782 9:-0.0102863 10:0.401935 11:0.324139 12:0.601074 13:0.0739591 14:0.457014 15:-0.0463449 16:-0.163391 17:0.392417 18:-0.101243 19:0.0163345 20:0.147614 21:0.336521 22:0.657658 23:0.283128 24:0.125061 25:0.914149 26:-0.377925 27:0.266885 28:-0.296449 29:0.993173 30:0.87234 31:0.0254692 32:0.490816 33:0.751311 34:-0.344557 35:0.305028 36:-0.444444 37:0.0856625 38:0.356725 39:-0.292852 40:-0.244806 41:-0.0466679 42:0.623117 43:0.59373 44:0.191848 45:-0.258839 46:0.773279 47:-0.660257 48:-0.687674 49:-0.00526592 50:0.389831 51:0.313945 52:0.588393 53:0.092705 54:0.393665 55:0.0997901 56:0.0329981 57:0.405654 58:-0.0996294 59:0.0125082 60:0.133503 61:0.463611 62:0.520362 63:0.216314 64:0.341102 65:0.768588 66:-0.329761 67:0.253685 68:-0.301676 69:0.581345 70:0.653179 71:0.270912 72:0.340415 73:0.775535 74:-0.398067 75:0.206071 76:-0.552204 77:0.325965 78:0.42623 79:-0.267855 80:-0.00632016 81:-0.0373068 82:0.597509 83:0.599184 84:0.168916 85:-0.239654 86:0.797571 87:-0.653318 88:-0.677197 89:0.104425 90:0.384458 91:0.331281 92:0.607692 93:0.0578199 94:0.409091 95:0.299691 96:0.0103736 97:0.429054 98:-0.0930208 99:0.0143225 100:0.145543 101:0.414794 102:0.54955 103:0.492583 104:0.445416 105:0.858265 106:-0.365175 107:0.267267 108:-0.335668 109:0.674431 110:0.74269 111:0.0411421 112:0.331498 113:0.674205 114:-0.355074 115:0.129603 116:-0.4551 117:0.528138 118:0.626667 119:-0.169801 120:0.130277 
-2.992939421397554 1:-0.0576759 2:0.776631 3:0.725912 4:0.288457 5:0.340131 6:0.771654 7:-0.039293 8:-0.0719791 9:-0.015916 10:0.748066 11:0.655849 12:0.793633 13:0.467033 14:0.782805 15:0.0414689 16:0.113518 17:0.105038 18:0.401564 19:0.401228 20:0.241755 21:0.387249 22:0.72973 23:0.21011 24:0.113906 25:0.604099 26:0.0138482 27:0.536219 28:-0.197118 29:0.950821 30:0.893617 31:-0.0628838 32:0.399404 33:0.59374 34:-0.233974 35:0.321551 36:-0.465657 37:0.186469 38:0.321637 39:-0.384805 40:-0.225685 41:-0.0519127 42:0.754274 43:0.721861 44:0.291981 45:0.325879 46:0.82996 47:-0.0535841 48:-0.0921086 49:0.00438136 50:0.740984 51:0.658063 52:0.75945 53:0.500739 54:0.737557 55:0.223729 56:0.38268 57:0.104353 58:0.399839 59:0.387691 60:0.263827 61:0.569026 62:0.60181 63:0.132777 64:0.352449 65:0.477889 66:0.0397137 67:0.51404 68:-0.191976 69:0.637562 70:0.757225 71:0.161209 72:0.3041 73:0.480962 74:-0.208785 75:0.202535 76:-0.488631 77:0.516291 78:0.344262 79:-0.325926 80:0.100824 81:-0.0389643 82:0.722051 83:0.72446 84:0.262952 85:0.339496 86:0.82996 87:-0.060757 88:-0.0827613 89:0.0891954 90:0.734902 91:0.666788 92:0.775385 93:0.484121 94:0.772727 95:0.425512 96:0.359352 97:0.235962 98:0.385048 99:0.418959 100:0.25705 101:0.552748 102:0.684685 103:0.399256 104:0.468136 105:0.541247 106:0.0216666 107:0.512542 108:-0.242121 109:0.69418 110:0.637427 111:-0.0856368 112:0.289849 113:0.544317 114:-0.230203 115:0.179159 116:-0.394678 117:0.475812 118:0.466667 119:-0.298107 120:0.045465 
-1.7370449447854 1:-0.149896 2:0.866897 3:0.772624 4:0.546678 5:1 6:0.748031 7:1 8:1 9:-0.0503475 10:0.935469 11:0.821828 12:0.895666 13:0.916316 14:0.945701 15:0.229396 16:0.552948 17:-0.0292569 18:0.74967 19:0.67929 20:0.335255 21:0.552076 22:0.81982 23:0.00454306 24:0.116892 25:0.340608 26:0.410434 27:0.802312 28:-0.135358 29:0.799632 30:0.893617 31:-0.180214 32:0.224439 33:0.509111 34:-0.0982759 35:0.414745 36:-0.261111 37:0.20182 38:0.450292 39:-0.476164 40:-0.282499 41:-0.152867 42:0.844824 43:0.766148 44:0.564466 45:1 46:0.789474 47:1 48:1 49:-0.0637301 50:0.936889 51:0.818508 52:0.883162 53:1 54:0.954751 55:0.490991 56:0.970725 57:0.11756 58:0.707113 59:0.706093 60:0.3363 61:0.719006 62:0.728507 63:-0.00387114 64:0.349817 65:0.222073 66:0.432708 67:0.789594 68:-0.103606 69:0.497144 70:0.710983 71:-0.0594288 72:0.102995 73:0.334647 74:-0.0295107 75:0.295952 76:-0.322506 77:0.308538 78:0.262295 79:-0.415506 80:-0.0849594 81:-0.147912 82:0.813864 83:0.767851 84:0.531128 85:1 86:0.789474 87:1 88:1 89:0.0194473 90:0.928232 91:0.823214 92:0.886154 93:0.992615 94:0.981818 95:0.625042 96:0.901586 97:0.0794575 98:0.739093 99:0.691963 100:0.299838 101:0.619383 102:0.783784 103:0.152402 104:0.354636 105:0.3858 106:0.402863 107:0.844068 108:-0.162581 109:0.58063 110:0.80117 111:-0.276377 112:0.0643325 113:0.311585 114:-0.0337114 115:0.2269 116:-0.235588 117:0.550907 118:0.426667 119:-0.459022 120:0.00301924 
19.21450457782762 1:0.14242 2:-0.967512 3:-0.959889 4:-0.424851 5:-0.864573 6:-0.645669 7:-0.955487 8:-0.960507 9:0.427203 10:-0.895137 11:-0.857376 12:0.137706 13:-0.506745 14:-0.457014 15:-0.560599 16:-0.610078 17:0.708657 18:-0.773145 19:-0.616148 20:-0.152097 21:0.0551292 22:0.252252 23:-0.1243 24:-0.169368 25:0.848781 26:-0.571669 27:-0.0269307 28:-0.511065 29:0.890778 30:0.712766 31:-0.207592 32:0.302862 33:0.736201 34:-0.380606 35:0.24812 36:-0.491919 37:0.17256 38:0.321637 39:-0.355417 40:-0.218792 41:0.182691 42:-0.970442 43:-0.959303 44:-0.420027 45:-0.868057 46:-0.635628 47:-0.957417 48:-0.961927 49:0.470215 50:-0.898269 51:-0.856188 52:0.14013 53:-0.491725 54:-0.484163 55:-0.484079 56:-0.507364 57:0.769138 58:-0.774112 59:-0.609431 60:-0.164654 61:0.12234 62:0.176471 63:-0.106159 64:-0.00387627 65:0.880741 66:-0.570899 67:0.0150353 68:-0.519553 69:0.514025 70:0.618497 71:0.0425217 72:0.184448 73:0.885522 74:-0.465473 75:0.209743 76:-0.585615 77:0.395777 78:0.229508 79:-0.321512 80:0.0350945 81:0.167648 82:-0.970169 83:-0.959354 84:-0.441881 85:-0.86226 86:-0.635628 87:-0.952888 88:-0.958625 89:0.500325 90:-0.896254 91:-0.854515 92:0.125385 93:-0.497292 94:-0.481818 95:-0.370156 96:-0.498139 97:0.8063 98:-0.770655 99:-0.601432 100:-0.149433 101:0.0985794 102:0.171171 103:0.103968 104:0.0976371 105:0.916491 106:-0.583126 107:0.0261544 108:-0.536768 109:0.708455 110:0.660819 111:-0.0953505 112:0.288899 113:0.697267 114:-0.377976 115:0.124031 116:-0.530488 117:0.502832 118:0.466667 119:-0.218786 120:0.110235 
64.48359034178604 1:0.117427 2:-0.981009 3:-0.976982 4:-0.465019 5:-0.904356 6:-0.755906 7:-0.983308 8:-0.978273 9:0.430025 10:-0.946172 11:-0.914066 12:0.0993479 13:-0.661898 14:-0.782805 15:-0.805377 16:-0.759483 17:0.678595 18:-0.835024 19:-0.701621 20:-0.125841 21:-0.239023 22:-0.198198 23:-0.469566 24:-0.430753 25:0.754487 26:-0.584935 27:-0.114569 28:-0.462687 29:0.575917 30:0.468085 31:-0.376535 32:0.0396924 33:0.915356 34:-0.504558 35:0.220465 36:-0.428283 37:0.314283 38:0.426901 39:-0.332393 40:-0.132071 41:0.161546 42:-0.98416 43:-0.976665 44:-0.465219 45:-0.907418 46:-0.757085 47:-0.984815 48:-0.97925 49:0.46817 50:-0.949361 51:-0.914422 52:0.0859107 53:-0.659855 54:-0.800905 55:-0.776042 56:-0.703772 57:0.724753 58:-0.83536 59:-0.699424 60:-0.15321 61:-0.154105 62:-0.239819 63:-0.428942 64:-0.275355 65:0.704067 66:-0.570715 67:-0.110583 68:-0.484002 69:0.336818 70:0.364162 71:-0.164055 72:0.00653664 73:0.871125 74:-0.473218 75:0.185004 76:-0.564269 77:0.454548 78:0.196721 79:-0.301937 80:0.0929128 81:0.138607 82:-0.98369 83:-0.977428 84:-0.484545 85:-0.901582 86:-0.748988 87:-0.983733 88:-0.97756 89:0.500994 90:-0.949972 91:-0.915164 92:0.0392308 93:-0.656648 94:-0.8 95:-0.74086 96:-0.701353 97:0.762934 98:-0.83493 99:-0.695963 100:-0.141005 101:-0.117278 102:-0.189189 103:-0.375302 104:-0.227316 105:0.806767 106:-0.609529 107:-0.0967489 108:-0.501751 109:0.513372 110:0.380117 111:-0.318023 112:0.0723571 113:0.824032 114:-0.472875 115:0.0944072 116:-0.449557 117:0.459704 118:0.44 119:-0.320255 120:0.0257934 
482.2354363125473 1:0.105547 2:-0.985648 3:-0.983157 4:-0.454866 5:-0.929007 6:-0.811024 7:-0.993138 8:-0.986905 9:0.377036 10:-0.965588 11:-0.942947 12:0.0909091 13:-0.751135 14:-0.963801 15:-0.914555 16:-0.840308 17:0.635329 18:-0.88522 19:-0.77501 20:-0.153378 21:-0.412562 22:-0.522523 23:-0.695819 24:-0.583746 25:0.604562 26:-0.620397 27:-0.262982 28:-0.419969 29:0.294837 30:0.148936 31:-0.521715 32:-0.164228 33:0.787626 34:-0.502449 35:0.120678 36:-0.415152 37:0.252873 38:0.122807 39:-0.447075 40:-0.188866 41:0.135311 42:-0.987381 43:-0.982803 44:-0.455472 45:-0.933625 46:-0.813765 47:-0.993714 48:-0.987819 49:0.404965 50:-0.967556 51:-0.943647 52:0.0836197 53:-0.753431 54:-0.972851 55:-0.905847 56:-0.808599 57:0.660763 58:-0.88256 59:-0.776323 60:-0.139224 61:-0.40977 62:-0.547511 63:-0.668469 64:-0.515286 65:0.584928 66:-0.614195 67:-0.253138 68:-0.426612 69:0.0648189 70:0.017341 71:-0.329607 72:-0.192111 73:0.772532 74:-0.501347 75:0.0617053 76:-0.511369 77:0.239679 78:0.0819672 79:-0.347672 80:-0.067817 81:0.117479 82:-0.987753 83:-0.983994 84:-0.485851 85:-0.929384 86:-0.797571 87:-0.993101 88:-0.986941 89:0.441871 90:-0.969646 91:-0.946033 92:0.0292308 93:-0.735278 94:-0.972727 95:-0.889327 96:-0.794991 97:0.679783 98:-0.882748 99:-0.780095 100:-0.136467 101:-0.380418 102:-0.54955 103:-0.627032 104:-0.462472 105:0.653528 106:-0.638724 107:-0.249268 108:-0.445723 109:0.284411 110:0.0994152 111:-0.485993 112:-0.130706 113:0.674293 114:-0.492268 115:-0.0392462 116:-0.403548 117:0.340009 118:0.293333 119:-0.204302 120:0.0353821 
-79.40154094762269 1:0.112418 2:-0.988025 3:-0.985111 4:-0.440742 5:-0.948038 6:-0.834646 7:-0.996912 8:-0.991977 9:0.344329 10:-0.978611 11:-0.961478 12:0.0755658 13:-0.793056 14:-1 15:-0.963764 16:-0.890331 17:0.604635 18:-0.926804 19:-0.83436 20:-0.150176 21:-0.573857 22:-0.765766 23:-0.84311 24:-0.711688 25:0.537354 26:-0.681816 27:-0.387555 28:-0.367988 29:0.019726 30:-0.287234 31:-0.639576 32:-0.315901 33:0.867225 34:-0.615013 35:0.0230416 36:-0.318687 37:0.18588 38:0.122807 39:-0.436727 40:-0.225874 41:0.135477 42:-0.989323 43:-0.984956 44:-0.444395 45:-0.950984 46:-0.82996 47:-0.997182 48:-0.992502 49:0.353425 50:-0.978827 51:-0.962672 52:0.0813288 53:-0.799008 54:-1 55:-0.958554 56:-0.870601 57:0.587043 58:-0.919461 59:-0.840677 60:-0.150032 61:-0.563353 62:-0.782805 63:-0.813918 64:-0.649932 65:0.475584 66:-0.6703 67:-0.399921 68:-0.355003 69:-0.0506787 70:-0.236994 71:-0.516725 72:-0.31729 73:0.80898 74:-0.599997 75:-0.0471617 76:-0.453828 77:0.253513 78:0.0983607 79:-0.428178 80:-0.108544 81:0.115059 82:-0.989594 83:-0.986299 84:-0.469308 85:-0.947267 86:-0.813765 87:-0.996768 88:-0.991863 89:0.395093 90:-0.981401 91:-0.965461 92:0.0430769 93:-0.780664 94:-1 95:-0.952668 96:-0.860238 97:0.634783 98:-0.923356 99:-0.842537 100:-0.13517 101:-0.538757 102:-0.756757 103:-0.781133 104:-0.612439 105:0.510514 106:-0.689359 107:-0.413559 108:-0.392196 109:-0.0643291 110:-0.333333 111:-0.61079 112:-0.346705 113:0.753009 114:-0.610323 115:-0.134677 116:-0.302661 117:0.362967 118:0.146667 119:-0.409893 120:-0.0449362 
30.50988424799197 1:0.0826796 2:-0.935174 3:-0.932207 4:-0.551534 5:-0.797073 6:-0.519685 7:-0.893224 8:-0.923315 9:0.287364 10:-0.831878 11:-0.810796 12:-0.177599 13:-0.269128 14:-0.18552 15:-0.18111 16:-0.33958 17:0.600473 18:-0.710253 19:-0.572252 20:-0.304515 21:0.270713 22:0.495495 23:0.21294 24:0.0827281 25:0.861546 26:-0.529054 27:0.0421921 28:-0.5193 29:0.964435 30:0.765957 31:-0.0495368 32:0.446778 33:0.790654 34:-0.336583 35:0.35271 36:-0.504545 37:0.219663 38:0.333333 39:-0.267512 40:-0.14524 41:0.113846 42:-0.941577 43:-0.935487 44:-0.532565 45:-0.809742 46:-0.538462 47:-0.905263 48:-0.92988 49:0.32599 50:-0.840536 51:-0.81551 52:-0.159221 53:-0.26035 54:-0.230769 55:-0.0975312 56:-0.202619 57:0.59348 58:-0.704622 59:-0.579298 60:-0.309599 61:0.379568 62:0.375566 63:0.156221 64:0.284045 65:0.752503 66:-0.502127 67:0.0229429 68:-0.523108 69:0.74383 70:0.82659 71:0.232322 72:0.402461 73:0.76532 74:-0.395811 75:0.207055 76:-0.62181 77:0.514905 78:0.52459 79:-0.165656 80:0.170962 81:0.10045 82:-0.939888 83:-0.933543 84:-0.565085 85:-0.799876 86:-0.51417 87:-0.896787 88:-0.924589 89:0.353351 90:-0.836431 91:-0.81355 92:-0.204615 93:-0.296536 94:-0.227273 95:0.101543 96:-0.214393 97:0.62427 98:-0.702348 99:-0.576732 100:-0.3141 101:0.373342 102:0.405405 103:0.454067 104:0.435155 105:0.822711 106:-0.514233 107:0.0523225 108:-0.532766 109:0.896697 110:0.777778 111:0.0285933 112:0.475272 113:0.661989 114:-0.300465 115:0.187525 116:-0.475055 117:0.545411 118:0.586667 119:-0.142258 120:0.164158 
57.96887141328472 1:0.0771086 2:-0.950986 3:-0.949404 4:-0.531671 5:-0.812834 6:-0.645669 7:-0.937146 8:-0.937308 9:0.220281 10:-0.853332 11:-0.844565 12:-0.208285 13:-0.307998 14:-0.429864 15:-0.431607 16:-0.406311 17:0.35527 18:-0.668854 19:-0.605715 20:-0.331412 21:0.264478 22:0.27027 23:0.036643 24:0.0567643 25:0.537282 26:-0.385128 27:-0.00269916 28:-0.437468 29:0.908674 30:0.670213 31:-0.0730091 32:0.416239 33:0.663443 34:-0.244614 35:0.360602 36:-0.386364 37:0.335141 38:0.508772 39:-0.234062 40:-0.078431 41:0.111991 42:-0.956556 43:-0.951694 44:-0.52459 45:-0.819555 46:-0.651822 47:-0.939185 48:-0.939387 49:0.228066 50:-0.861285 51:-0.853904 52:-0.198167 53:-0.292208 54:-0.475113 55:-0.336488 56:-0.251433 57:0.398141 58:-0.681743 59:-0.617145 60:-0.324221 61:0.368162 62:0.149321 63:0.0542163 64:0.292465 65:0.597316 66:-0.420748 67:0.0188934 68:-0.457593 69:0.697667 70:0.641618 71:0.10116 72:0.340419 73:0.69288 74:-0.29777 75:0.26517 76:-0.493271 77:0.527986 78:0.393443 79:-0.194416 80:0.181767 81:0.0896975 82:-0.953947 83:-0.950067 84:-0.531128 85:-0.812405 86:-0.643725 87:-0.936968 88:-0.936292 89:0.274513 90:-0.856983 91:-0.849523 92:-0.217692 93:-0.2987 94:-0.445455 95:-0.20171 96:-0.256709 97:0.414722 98:-0.6783 99:-0.621037 100:-0.324473 101:0.32042 102:0.198198 103:0.291023 104:0.37335 105:0.589158 106:-0.424979 107:-0.00889755 108:-0.462231 109:1 110:0.777778 111:0.0972251 112:0.594985 113:0.55052 114:-0.215417 115:0.202084 116:-0.414634 117:0.60129 118:0.706667 119:-0.103131 120:0.20595 
-2076.175398273593 1:0.0850358 2:-0.960984 3:-0.959062 4:-0.482675 5:-0.8419 6:-0.732283 7:-0.959602 8:-0.951747 9:0.188894 10:-0.881369 11:-0.878407 12:-0.211354 13:-0.393007 14:-0.61086 15:-0.616592 16:-0.506695 17:0.314816 18:-0.701541 19:-0.653995 20:-0.352546 21:0.130927 22:-0.036036 23:-0.25248 24:-0.0962592 25:0.319484 26:-0.332051 27:-0.0881724 28:-0.391148 29:0.849842 30:0.531915 31:-0.172494 32:0.343431 33:0.590867 34:-0.153241 35:0.412533 36:-0.261616 37:0.32262 38:0.461988 39:-0.28101 40:-0.104391 41:0.110986 42:-0.962418 43:-0.958195 44:-0.485157 45:-0.853347 46:-0.740891 47:-0.963175 48:-0.955954 49:0.223753 50:-0.883382 51:-0.877362 52:-0.216495 53:-0.394085 54:-0.665158 55:-0.592167 56:-0.406037 57:0.342629 58:-0.697357 59:-0.651733 60:-0.3452 61:0.269056 62:-0.131222 63:-0.246848 64:0.135289 65:0.455417 66:-0.376867 67:-0.0263084 68:-0.384967 69:0.558345 70:0.421965 71:-0.0597658 72:0.203167 73:0.382382 74:-0.116677 75:0.230972 76:-0.384687 77:0.531133 78:0.47541 79:-0.200761 80:0.16868 81:0.112384 82:-0.964242 83:-0.958693 84:-0.495429 85:-0.848607 86:-0.748988 87:-0.961474 88:-0.953332 89:0.265986 90:-0.886961 91:-0.881988 92:-0.218462 93:-0.410445 94:-0.672727 95:-0.512904 96:-0.414163 97:0.362049 98:-0.707514 99:-0.669942 100:-0.364019 101:0.24275 102:-0.0990991 103:-0.053842 104:0.22673 105:0.479905 106:-0.410246 107:-0.0710578 108:-0.44072 109:0.681681 110:0.473684 111:-0.0983075 112:0.308953 113:0.485072 114:-0.193611 115:0.169177 116:-0.151885 117:0.617462 118:0.466667 119:-0.300872 120:0.140307 
1489.04313717436 1:0.0967174 2:-0.970886 3:-0.968291 4:-0.458398 5:-0.872957 6:-0.811024 7:-0.975488 8:-0.964951 9:0.192883 10:-0.924652 11:-0.922085 12:-0.250479 13:-0.52058 14:-0.828054 15:-0.764158 16:-0.619158 17:0.256673 18:-0.790658 19:-0.766392 20:-0.456292 21:-0.0135354 22:-0.342342 23:-0.434891 24:-0.200857 25:0.243132 26:-0.44196 27:-0.268366 28:-0.422542 29:0.60592 30:0.234043 31:-0.284214 32:0.178304 33:0.56418 34:-0.237539 35:0.279682 36:-0.178788 37:0.364781 38:0.333333 39:-0.305814 40:-0.070521 41:0.121067 42:-0.97213 43:-0.967619 44:-0.4537 45:-0.87919 46:-0.805668 47:-0.975604 48:-0.9666 49:0.219178 50:-0.9265 51:-0.92269 52:-0.229477 53:-0.489785 54:-0.809955 55:-0.715858 56:-0.51191 57:0.261136 58:-0.790245 59:-0.775588 60:-0.431024 61:0.119179 62:-0.321267 63:-0.370334 64:0.00966827 65:0.204295 66:-0.457766 67:-0.29061 68:-0.440833 69:0.43516 70:0.0982659 71:-0.086783 72:0.176684 73:0.395304 74:-0.241715 75:0.0865551 76:-0.370302 77:0.388833 78:0.327869 79:-0.32682 80:0.0140254 81:0.119158 82:-0.972233 83:-0.966794 84:-0.462778 85:-0.883181 86:-0.805668 87:-0.97817 88:-0.968803 89:0.294426 90:-0.928529 91:-0.920764 92:-0.248462 93:-0.526034 94:-0.863636 95:-0.735349 96:-0.5618 97:0.362669 98:-0.797145 99:-0.766633 100:-0.452836 101:0.073022 102:-0.378378 103:-0.379182 104:-0.000197426 105:0.340076 106:-0.471867 107:-0.245602 108:-0.456728 109:0.623921 110:0.146199 111:-0.273425 112:0.234005 113:0.50158 114:-0.25988 115:0.10133 116:-0.0498891 117:0.619267 118:0.453333 119:-0.300463 120:0.144136 
567.8816201336592 1:0.0162122 2:-0.826274 3:-0.831016 4:-0.843743 5:-0.773492 6:-0.480315 7:-0.874099 8:-0.910505 9:0.254393 10:-0.719249 11:-0.697384 12:-0.497507 13:-0.204401 14:0.0497738 15:-0.0606112 16:-0.297555 17:0.66663 18:-0.625444 19:-0.448263 20:-0.330772 21:0.257352 22:0.594595 23:0.227958 24:0.0565142 25:0.904341 26:-0.422086 27:0.204973 28:-0.366958 29:0.776936 30:0.744681 31:-0.172863 32:0.245226 33:0.707846 34:-0.192497 35:0.457369 36:-0.227273 37:0.195319 38:0.274854 39:-0.312329 40:-0.175586 41:0.0220338 42:-0.833979 43:-0.837888 44:-0.849358 45:-0.789485 46:-0.465587 47:-0.881327 48:-0.918506 49:0.206753 50:-0.719732 51:-0.711037 52:-0.52501 53:-0.229095 54:0.00452489 55:0.0871917 56:-0.167644 57:0.606649 58:-0.618335 59:-0.472407 60:-0.364908 61:0.370233 62:0.493213 63:0.195418 64:0.264292 65:0.768312 66:-0.390735 67:0.177154 68:-0.399695 69:0.514394 70:0.722543 71:0.212086 72:0.249796 73:0.641794 74:-0.212173 75:0.328172 76:-0.407889 77:0.459411 78:0.377049 79:-0.262105 80:0.094974 81:-0.00699502 82:-0.828464 83:-0.834761 84:-0.849369 85:-0.780326 86:-0.465587 87:-0.876292 88:-0.913317 89:0.261473 90:-0.715798 91:-0.705298 92:-0.517692 93:-0.225715 94:0.0181818 95:0.295172 96:-0.149464 97:0.634067 98:-0.606466 99:-0.459765 100:-0.357536 101:0.346953 102:0.567568 103:0.501316 104:0.389781 105:0.857603 106:-0.419222 107:0.201155 108:-0.437219 109:0.731898 110:0.80117 111:0.0455586 112:0.362762 113:0.606962 114:-0.210369 115:0.246774 116:-0.349778 117:0.564442 118:0.44 119:-0.0429189 120:0.25891 
240.0301424641583 1:0.113475 2:-0.965312 3:-0.960396 4:-0.509159 5:-0.897031 6:-0.732283 7:-0.973378 8:-0.973237 9:0.315972 10:-0.907423 11:-0.886677 12:-0.102417 13:-0.617231 14:-0.701357 15:-0.726937 16:-0.708901 17:0.696568 18:-0.76953 19:-0.617707 20:-0.0425873 21:-0.15027 22:-0.126126 23:-0.341645 24:-0.325364 25:0.847368 26:-0.555549 27:-0.012224 28:-0.447761 29:0.614107 30:0.478723 31:-0.29765 32:0.115225 33:0.888627 34:-0.483024 35:0.227963 36:-0.420202 37:0.278559 38:0.169591 39:-0.270732 40:-0.0828834 41:0.148671 42:-0.968443 43:-0.960428 44:-0.512627 45:-0.898321 46:-0.724696 47:-0.975636 48:-0.974177 49:0.359797 50:-0.911359 51:-0.886544 52:-0.0981291 53:-0.588161 54:-0.692308 55:-0.695512 56:-0.63203 57:0.731251 58:-0.771412 59:-0.620506 60:-0.051494 61:0.0133069 62:-0.0950226 63:-0.371254 64:-0.161159 65:0.84186 66:-0.553406 67:0.00485673 68:-0.447943 69:0.43479 70:0.50289 71:-0.155758 72:0.0495163 73:0.964986 74:-0.521669 75:0.198726 76:-0.588863 77:0.412425 78:0.278689 79:-0.285297 80:0.0616547 81:0.131436 82:-0.968438 83:-0.961107 84:-0.51502 85:-0.89415 86:-0.724696 87:-0.973935 88:-0.972427 89:0.396011 90:-0.910923 91:-0.886744 92:-0.100769 93:-0.593128 94:-0.7 95:-0.650225 96:-0.634842 97:0.719605 98:-0.758352 99:-0.61797 100:0.000972447 101:-0.0597989 102:-0.135135 103:-0.246996 104:-0.125607 105:0.84453 106:-0.549495 107:0.0110163 108:-0.458229 109:0.502038 110:0.461988 111:-0.240805 112:0.0974921 113:0.671388 114:-0.384211 115:0.0941502 116:-0.482262 117:0.46255 118:0.413333 119:-0.289065 120:0.0503798 
-1520.041394177376 1:0.113673 2:-0.97008 3:-0.965363 4:-0.537409 5:-0.91104 6:-0.811024 7:-0.987227 8:-0.980287 9:0.289505 10:-0.92988 11:-0.914177 12:-0.197545 13:-0.668274 14:-0.846154 15:-0.850823 16:-0.773839 17:0.554296 18:-0.817638 19:-0.715201 20:-0.209734 21:-0.303773 22:-0.369369 23:-0.559904 24:-0.477934 25:0.668054 26:-0.564354 27:-0.148629 28:-0.408646 29:0.418222 30:0.255319 31:-0.459583 32:-0.0691082 33:0.993328 34:-0.571667 35:0.18907 36:-0.422222 37:0.268004 38:0.380117 39:-0.313272 40:-0.144748 41:0.134571 42:-0.971647 43:-0.965417 44:-0.52459 45:-0.910368 46:-0.805668 47:-0.987725 48:-0.980146 49:0.309238 50:-0.932065 51:-0.91607 52:-0.17373 53:-0.66442 54:-0.864253 55:-0.816386 56:-0.712592 57:0.565123 58:-0.8157 59:-0.721352 60:-0.183725 61:-0.194561 62:-0.411765 63:-0.516815 64:-0.304959 65:0.703551 66:-0.583702 67:-0.140134 68:-0.341798 69:0.204954 70:0.190751 71:-0.130147 72:-0.0304175 73:0.888176 74:-0.516289 75:0.135904 76:-0.520186 77:0.346335 78:0.0819672 79:-0.307848 80:0.029189 81:0.124231 82:-0.972634 83:-0.966409 84:-0.543753 85:-0.903979 86:-0.789474 87:-0.9875 88:-0.978862 89:0.338633 90:-0.932445 91:-0.918438 92:-0.212308 93:-0.660075 94:-0.854545 95:-0.79068 96:-0.713795 97:0.624174 98:-0.815458 99:-0.713633 100:-0.182496 101:-0.168324 102:-0.378378 103:-0.459493 104:-0.254349 105:0.742139 106:-0.594559 107:-0.129934 108:-0.412706 109:0.465282 110:0.22807 111:-0.378501 112:0.0325688 113:0.690743 114:-0.476197 115:-0.00648783 116:-0.432373 117:0.559498 118:0.32 119:-0.235538 120:0.165307 
405.7291477933953 1:0.11844 2:-0.974746 3:-0.969848 4:-0.541823 5:-0.924662 6:-0.834646 7:-0.992892 8:-0.985476 9:0.279372 10:-0.944608 11:-0.931121 12:-0.249712 13:-0.719732 14:-0.945701 15:-0.918309 16:-0.825939 17:0.45918 18:-0.855832 19:-0.784455 20:-0.334614 21:-0.416313 22:-0.558559 23:-0.69364 24:-0.575901 25:0.588947 26:-0.618176 27:-0.271965 28:-0.384972 29:0.187949 30:0.0212766 31:-0.468983 32:-0.165289 33:0.938034 34:-0.587678 35:0.118439 36:-0.361616 37:0.200001 38:0.426901 39:-0.390427 40:-0.23423 41:0.119864 42:-0.974433 43:-0.969983 44:-0.531679 45:-0.926795 46:-0.821862 47:-0.993433 48:-0.986165 49:0.259509 50:-0.942281 51:-0.933686 52:-0.226422 53:-0.711145 54:-0.954751 55:-0.913535 56:-0.785551 57:0.455485 58:-0.848151 59:-0.787572 60:-0.328036 61:-0.326373 62:-0.574661 63:-0.693085 64:-0.464302 65:0.520083 66:-0.586534 67:-0.25792 68:-0.410361 69:0.100661 70:-0.0289017 71:-0.362812 72:-0.177389 73:0.771057 74:-0.51917 75:0.040656 76:-0.562877 77:0.31417 78:0.147541 79:-0.314125 80:-0.00590137 81:0.108903 82:-0.975829 83:-0.971557 84:-0.541576 85:-0.923571 86:-0.821862 87:-0.992677 88:-0.98511 89:0.324859 90:-0.947905 91:-0.93697 92:-0.235385 93:-0.714583 94:-0.963636 95:-0.894065 96:-0.784122 97:0.500606 98:-0.855488 99:-0.79483 100:-0.308266 101:-0.342918 102:-0.594595 103:-0.655406 104:-0.437662 105:0.576589 106:-0.609479 107:-0.265114 108:-0.393697 109:0.223096 110:-0.0760234 111:-0.448524 112:-0.109258 113:0.943514 114:-0.603319 115:0.0109485 116:-0.381375 117:0.530004 118:0.32 119:-0.312699 120:0.0980987 
-641.8866554525205 1:-0.0217613 2:-0.562843 3:-0.579276 4:-0.435003 5:-0.710916 6:-0.401575 7:-0.791734 8:-0.864526 9:0.403503 10:-0.64632 11:-0.59291 12:0.0333717 13:-0.237071 14:0.0497738 15:-0.100249 16:-0.337545 17:0.785825 18:-0.701927 19:-0.502659 20:-0.178354 21:0.249689 22:0.585586 23:0.172039 24:0.0283955 25:0.878597 26:-0.525813 27:0.0595303 28:-0.524447 29:0.766622 30:0.797872 31:-0.151589 32:0.24156 33:0.787935 34:-0.360178 35:0.321025 36:-0.530808 37:0.16965 38:0.415205 39:-0.359702 40:-0.234997 41:0.0267817 42:-0.560323 43:-0.562174 44:-0.449712 45:-0.746074 46:-0.336032 47:-0.836939 48:-0.895078 49:0.317628 50:-0.593872 51:-0.560509 52:0.0446735 53:-0.196323 54:-0.0135747 55:0.125316 56:-0.116679 57:0.801208 58:-0.687249 59:-0.4907 60:-0.190718 61:0.456844 62:0.475113 63:0.251665 64:0.368941 65:0.9147 66:-0.548654 67:0.0725841 68:-0.526155 69:0.80092 70:0.66474 71:0.191383 72:0.459315 73:0.807023 74:-0.410207 75:0.223088 76:-0.624594 77:0.298215 78:0.311475 79:-0.2748 80:-0.0149865 81:0.0606235 82:-0.587272 83:-0.573256 84:-0.354811 85:-0.70784 86:-0.352227 87:-0.803574 88:-0.868026 89:0.454727 90:-0.611366 91:-0.554987 92:0.157692 93:-0.209119 94:0.0272727 95:0.24869 96:-0.152439 97:0.862386 98:-0.674592 99:-0.460809 100:-0.188979 101:0.382567 102:0.513514 103:0.461198 104:0.413198 105:0.914685 106:-0.546474 107:0.0793285 108:-0.549775 109:0.755069 110:0.789474 111:-0.0893091 112:0.298809 113:0.64462 114:-0.323793 115:0.148805 116:-0.507206 117:0.426255 118:0.413333 119:-0.269097 120:0.0376363 
283.6757096493784 1:0.012667 2:-0.449049 3:-0.457419 4:-0.522401 5:-0.63517 6:-0.19685 7:-0.753547 8:-0.832487 9:0.358757 10:-0.521205 11:-0.471957 12:-0.067127 13:-0.199398 14:0.0950226 15:-0.126431 16:-0.327917 17:0.730631 18:-0.639732 19:-0.446026 20:-0.202049 21:0.274027 22:0.540541 23:0.143094 24:0.0433881 25:0.829936 26:-0.494293 27:0.0672218 28:-0.517241 29:0.783928 30:0.819149 31:-0.132973 32:0.260427 33:0.761556 34:-0.331912 35:0.335616 36:-0.515152 37:0.0881124 38:0.321637 39:-0.291248 40:-0.238139 41:0.0472089 42:-0.449234 43:-0.444373 44:-0.543642 45:-0.623224 46:-0.238866 47:-0.726047 48:-0.813497 49:0.30306 50:-0.530009 51:-0.497963 52:-0.00649103 53:-0.152231 54:0.040724 55:0.156758 56:-0.0773229 57:0.76571 58:-0.653768 59:-0.462678 60:-0.182454 61:0.451272 62:0.466063 63:0.152624 64:0.311481 65:0.867368 66:-0.508233 67:0.0942068 68:-0.504317 69:0.805618 70:0.815029 71:0.357745 72:0.514738 73:0.713041 74:-0.337547 75:0.238128 76:-0.597216 77:0.261438 78:0.459016 79:-0.119452 80:0.0287668 81:0.0388207 82:-0.378554 83:-0.364428 84:-0.476273 85:-0.577361 86:-0.246964 87:-0.674969 88:-0.772782 89:0.443235 90:-0.4437 91:-0.37864 92:-0.133846 93:-0.188332 94:0.0818182 95:0.132423 96:-0.188262 97:0.753006 98:-0.573818 99:-0.376623 100:-0.301783 101:0.333265 102:0.423423 103:0.262356 104:0.294143 105:0.776875 106:-0.4055 107:0.169878 108:-0.554777 109:0.629798 110:0.672515 111:-0.093732 112:0.233269 113:0.61191 114:-0.320029 115:0.126046 116:-0.456763 117:0.364943 118:0.36 119:-0.320888 120:-0.0249131 
-21.32698488320022 1:-0.0549784 2:-0.395115 3:-0.424147 4:-0.535202 5:-0.565472 6:-0.0551181 7:-0.699746 8:-0.793577 9:0.27844 10:-0.461723 11:-0.432006 12:-0.0801688 13:-0.175793 14:0.140271 15:-0.168217 16:-0.335244 17:0.648793 18:-0.601932 19:-0.430395 20:-0.224464 21:0.230401 22:0.531532 23:0.113286 24:0.000288281 25:0.81241 26:-0.483843 27:0.0692107 28:-0.519815 29:0.791744 30:0.776596 31:-0.153229 32:0.260984 33:0.796106 34:-0.33406 35:0.361612 36:-0.516162 37:0.0378385 38:0.263158 39:-0.290692 40:-0.261207 41:-0.452418 42:-0.23605 43:-0.39298 44:-0.588392 45:-0.622011 46:-0.206478 47:-0.718443 48:-0.813315 49:0.172158 50:-0.382375 51:-0.383507 52:-0.0637648 53:-0.1307 54:0.0497738 55:0.161786 56:-0.0570015 57:0.677534 58:-0.572583 59:-0.398254 60:-0.180547 61:0.545657 62:0.493213 63:0.216511 64:0.415257 65:0.831453 66:-0.459705 67:0.132917 68:-0.465211 69:1 70:0.942197 71:0.394242 72:0.652209 73:0.652545 74:-0.29207 75:0.24323 76:-0.55406 77:0.495915 78:0.491803 79:-0.086899 80:0.207118 81:-0.0846916 82:-0.270669 83:-0.294436 84:-0.535481 85:-0.529482 86:-0.125506 87:-0.651716 88:-0.751157 89:0.321763 90:-0.269666 91:-0.235622 92:-0.296154 93:-0.152058 94:0.1 95:0.129261 96:-0.161626 97:0.545522 98:-0.40783 99:-0.269268 100:-0.359481 101:0.406589 102:0.459459 103:0.308486 104:0.367456 105:0.721127 106:-0.345962 107:0.198975 108:-0.488244 109:0.695621 110:0.730994 111:-0.0679398 112:0.282686 113:0.278117 114:-0.0918307 115:0.139859 116:-0.324834 117:0.391426 118:0.293333 119:-0.404026 120:-0.0464298 
-50.59630923937537 1:-0.231293 2:-0.216734 3:-0.308197 4:-0.544471 5:-0.377888 6:0.015748 7:-0.510245 8:-0.636991 9:0.219933 10:-0.316071 11:-0.301182 12:-0.110855 13:-0.00798241 14:0.276018 15:-0.118664 16:-0.216537 17:0.589362 18:-0.511223 19:-0.347449 20:-0.239833 21:0.271265 22:0.558559 23:0.0444942 24:-0.00734173 25:0.75837 26:-0.385272 27:0.160813 28:-0.501801 29:0.724464 30:0.712766 31:-0.169877 32:0.220284 33:0.695568 34:-0.217358 35:0.427045 36:-0.451515 37:-0.0139766 38:0.497076 39:-0.368021 40:-0.355323 41:-0.497811 42:-0.157827 43:-0.337017 44:-0.589721 45:-0.557457 46:-0.198381 47:-0.647112 48:-0.758757 49:0.111552 50:-0.318525 51:-0.337588 52:-0.0660557 53:-0.214734 54:0.040724 55:0.0327914 56:-0.185001 57:0.560729 58:-0.503776 59:-0.363447 60:-0.159568 61:0.344808 62:0.447964 63:0.113551 64:0.211944 65:0.611865 66:-0.366182 67:0.102805 68:-0.462671 69:0.662959 70:0.734104 71:0.280412 72:0.387541 73:0.491538 74:-0.227904 75:0.191313 76:-0.559165 77:0.284468 78:0.442623 79:-0.0745276 80:0.0707094 81:-0.15031 82:-0.0899531 83:-0.136957 84:-0.4963 85:-0.530747 86:-0.222672 87:-0.649094 88:-0.740644 89:0.207624 90:-0.101304 91:-0.106909 92:-0.186154 93:-0.312539 94:0.0818182 95:-0.132566 96:-0.38565 97:0.461119 98:-0.31375 99:-0.202905 100:-0.32966 101:0.0791075 102:0.36036 103:0.0193271 104:-0.0121069 105:0.508855 106:-0.152578 107:0.276805 108:-0.427214 109:0.413119 110:0.614035 111:-0.261938 112:-0.000809653 113:0.0630323 114:0.132252 115:0.224835 116:-0.170732 117:0.366556 118:0.706667 119:-0.330921 120:-0.0781564 
-301.9548368104134 1:0.0910913 2:-0.733234 3:-0.724436 4:-0.24211 5:-0.745924 6:-0.141732 7:-0.852373 8:-0.908865 9:0.437726 10:-0.726933 11:-0.672948 12:0.274262 13:-0.229815 14:0.0316742 15:-0.0426147 16:-0.306958 17:0.825672 18:-0.734048 19:-0.528835 20:-0.176433 21:0.272472 22:0.576577 23:0.251672 24:0.0820534 25:0.950745 26:-0.572476 27:0.0457165 28:-0.525476 29:0.941561 30:0.819149 31:-0.0558317 32:0.41459 33:0.853489 34:-0.410329 35:0.306749 36:-0.521212 37:0.251167 38:0.356725 39:-0.286933 40:-0.138377 41:0.0918617 42:-0.729053 43:-0.71903 44:-0.229065 45:-0.754251 46:-0.149798 47:-0.862774 48:-0.913276 49:0.430548 50:-0.710444 51:-0.65912 52:0.334861 53:-0.217466 54:-0.0226244 55:0.101425 56:-0.14374 57:0.846051 58:-0.733288 59:-0.532036 60:-0.201526 61:0.406551 62:0.484163 63:0.249042 64:0.3247 65:0.93776 66:-0.562583 67:0.068603 68:-0.52514 69:0.715953 70:0.722543 71:0.210555 72:0.393139 73:0.842492 74:-0.421028 75:0.240003 76:-0.638979 77:0.359247 78:0.327869 79:-0.235711 80:0.0471648 81:0.0831004 82:-0.707018 83:-0.692402 84:-0.250762 85:-0.750379 86:-0.125506 87:-0.853664 88:-0.91004 89:0.495773 90:-0.702611 91:-0.643436 92:0.272308 93:-0.254741 95:0.319643 96:-0.163334 97:0.881897 98:-0.725786 99:-0.517428 100:-0.198703 101:0.367581 102:0.504505 103:0.494455 104:0.420965 105:0.988059 106:-0.57614 107:0.0935333 108:-0.553777 109:0.783149 110:0.777778 111:0.0161857 112:0.385923 113:0.674527 114:-0.370653 115:0.115334 116:-0.519401 117:0.496965 118:0.453333 119:-0.296424 120:0.0627991 
12.82898116917826 1:0.0851018 2:-0.726064 3:-0.718113 4:-0.330391 5:-0.330525 6:0.755906 7:-0.651124 8:-0.721993 9:0.435307 10:-0.722616 11:-0.668548 12:0.228232 13:-0.0741982 14:0.330317 15:-0.0278346 16:-0.243408 17:0.826329 18:-0.733199 19:-0.527549 20:-0.176433 21:0.289589 22:0.594595 23:0.244182 24:0.087376 25:0.942707 26:-0.569917 27:0.0433962 28:-0.523932 29:0.911919 30:0.797872 31:-0.0522789 32:0.40188 33:0.852676 34:-0.409206 35:0.307566 36:-0.520707 37:0.214353 38:0.356725 39:-0.27344 40:-0.154973 41:0.0876658 42:-0.722413 43:-0.712876 44:-0.31502 45:-0.347266 46:0.813765 47:-0.659383 48:-0.733032 49:0.424743 50:-0.706345 51:-0.655764 52:0.294387 53:-0.0626029 54:0.285068 55:0.121519 56:-0.0730059 57:0.839033 58:-0.731979 59:-0.532747 60:-0.202797 61:0.410178 62:0.502262 63:0.246319 64:0.320862 65:0.933138 66:-0.561543 67:0.0668039 68:-0.52514 69:0.720448 70:0.734104 71:0.207183 72:0.392173 73:0.855267 74:-0.424549 75:0.246098 76:-0.639443 77:0.381337 78:0.327869 79:-0.24383 80:0.0577844 81:0.0723702 82:-0.700148 83:-0.687361 84:-0.332172 85:-0.336778 86:0.813765 87:-0.657342 88:-0.727195 89:0.487863 90:-0.697924 91:-0.639948 92:0.231538 93:-0.0963249 94:0.309091 95:0.337403 96:-0.0898309 97:0.880835 98:-0.725225 99:-0.51708 100:-0.199352 101:0.401905 102:0.531532 103:0.475326 104:0.431115 105:0.982363 106:-0.574304 107:0.0920413 108:-0.555278 109:0.813049 110:0.777778 111:-0.00237018 112:0.395759 113:0.688028 114:-0.374744 115:0.120367 116:-0.519956 117:0.470073 118:0.44 119:-0.29138 120:0.049811 
1.245051838271107 1:0.085344 2:-0.725461 3:-0.717379 4:-0.352019 5:-0.0418083 6:0.826772 7:-0.348805 8:-0.471229 9:0.425132 10:-0.71859 11:-0.666173 12:0.196011 13:0.0650693 14:0.556561 15:0.0026393 16:-0.170964 17:0.824273 18:-0.731726 19:-0.526392 20:-0.177073 21:0.307506 22:0.612613 23:0.21838 24:0.0851611 25:0.946898 26:-0.570605 27:0.0456218 28:-0.525476 29:0.90503 30:0.787234 31:-0.0619307 32:0.393325 33:0.849564 34:-0.408395 35:0.306354 36:-0.523737 37:0.239452 38:0.356725 39:-0.284238 40:-0.144495 41:0.0899625 42:-0.722479 43:-0.712406 44:-0.33673 45:-0.0432638 46:0.878543 47:-0.360025 48:-0.476224 49:0.424619 50:-0.703497 51:-0.652525 52:0.25315 53:0.100615 54:0.511312 55:0.159315 56:0.0345712 57:0.844207 58:-0.731521 59:-0.530385 60:-0.203433 61:0.435237 62:0.511312 63:0.225956 64:0.326737 65:0.941505 66:-0.562294 67:0.0712913 68:-0.522092 69:0.706194 70:0.710983 71:0.200139 72:0.383136 73:0.852439 74:-0.424619 75:0.243915 76:-0.642227 77:0.356813 78:0.327869 79:-0.236404 80:0.0450816 81:0.0725691 82:-0.699748 83:-0.686845 84:-0.355246 85:-0.0459019 86:0.878543 87:-0.358045 88:-0.47684 89:0.478693 90:-0.693877 91:-0.637522 92:0.201538 93:0.0468219 94:0.518182 95:0.380814 96:0.00334304 97:0.881467 98:-0.724864 99:-0.516396 100:-0.199352 101:0.41122 102:0.531532 103:0.451668 104:0.426269 105:0.980109 106:-0.572741 107:0.0922797 108:-0.553277 109:0.782567 110:0.766082 111:-0.000622358 112:0.377649 113:0.686918 114:-0.374744 115:0.119596 116:-0.52051 117:0.481799 118:0.453333 119:-0.298435 120:0.0513971 
3000 1:0.0982698 2:-0.737291 3:-0.72717 4:-0.227544 5:-0.793703 6:-0.409449 7:-0.859502 8:-0.917335 9:0.442674 10:-0.727939 11:-0.673031 12:0.279632 13:-0.252358 14:-0.00452489 15:-0.0442176 16:-0.317435 17:0.822155 18:-0.73363 19:-0.529472 20:-0.177714 21:0.289142 22:0.576577 23:0.238404 24:0.0886299 25:0.951232 26:-0.572163 27:0.0463727 28:-0.524447 29:0.927205 30:0.819149 31:-0.0505927 32:0.408406 33:0.841042 34:-0.405052 35:0.303325 36:-0.517677 37:0.240574 38:0.356725 39:-0.281442 40:-0.142328 41:0.0965765 42:-0.732341 43:-0.721479 44:-0.218875 45:-0.803041 46:-0.433198 47:-0.87039 48:-0.921811 49:0.432331 50:-0.711051 51:-0.659402 52:0.337152 53:-0.230373 54:-0.0588235 55:0.0901002 56:-0.150286 57:0.845952 58:-0.733415 59:-0.532226 60:-0.201526 61:0.416558 62:0.484163 63:0.244392 64:0.330058 65:0.939044 66:-0.563285 67:0.0684183 68:-0.524632 69:0.720473 70:0.734104 71:0.211169 72:0.394251 73:0.848618 74:-0.422409 75:0.243367 76:-0.639443 77:0.358111 78:0.327869 79:-0.234287 80:0.0471989 81:0.0845369 82:-0.709471 83:-0.694671 84:-0.243361 85:-0.799358 86:-0.417004 87:-0.860439 88:-0.918157 89:0.494461 90:-0.702628 91:-0.643756 92:0.272308 93:-0.270179 94:-0.0363636 95:0.313097 96:-0.170423 97:0.885787 98:-0.726507 99:-0.516985 100:-0.197407 101:0.367921 102:0.504505 103:0.4928 104:0.420383 105:0.99343 106:-0.57735 107:0.0956793 108:-0.552276 109:0.773073 110:0.777778 111:0.0177708 112:0.37975 113:0.689604 114:-0.374932 115:0.121337 116:-0.52051 117:0.485063 118:0.44 119:-0.294952 120:0.0577917 
760.6265082878358 1:0.103522 2:-0.738411 3:-0.727262 4:-0.226661 5:-0.7961 6:-0.417323 7:-0.859916 8:-0.917999 9:0.444009 10:-0.728247 11:-0.673098 12:0.281933 13:-0.248062 14:-0.00452489 15:-0.0499291 16:-0.316125 17:0.824335 18:-0.7339 19:-0.529088 20:-0.177073 21:0.280183 22:0.576577 23:0.243454 24:0.0841844 25:0.946981 26:-0.5717 27:0.0441268 28:-0.525476 29:0.90727 30:0.808511 31:-0.04563 32:0.400711 33:0.850237 34:-0.408076 35:0.306907 36:-0.518687 37:0.249074 38:0.356725 39:-0.284989 40:-0.138711 41:0.0988069 42:-0.732836 43:-0.721542 44:-0.218432 45:-0.804848 46:-0.441296 47:-0.871124 48:-0.922341 49:0.433768 50:-0.711227 51:-0.659299 52:0.339443 53:-0.237763 54:-0.0588235 55:0.0930479 56:-0.156237 57:0.845568 58:-0.733382 59:-0.532342 60:-0.20089 61:0.409036 62:0.484163 63:0.248674 64:0.326462 65:0.936115 66:-0.56227 67:0.0678095 68:-0.524632 69:0.725905 70:0.734104 71:0.208525 72:0.396857 73:0.859128 74:-0.425454 75:0.248032 76:-0.638515 77:0.365298 78:0.327869 79:-0.238675 80:0.0496437 81:0.0873327 82:-0.710211 83:-0.694855 84:-0.24249 85:-0.802661 86:-0.425101 87:-0.860786 88:-0.919134 89:0.49433 90:-0.702726 91:-0.643897 92:0.273077 93:-0.279276 94:-0.0454545 95:0.317758 96:-0.174963 97:0.884271 98:-0.726253 99:-0.517208 100:-0.197407 101:0.37193 102:0.504505 103:0.491619 104:0.423059 105:0.988653 106:-0.576351 107:0.0935333 108:-0.552776 109:0.777534 110:0.777778 111:0.0178908 112:0.382983 113:0.688568 114:-0.37517 115:0.120325 116:-0.521064 117:0.481164 118:0.453333 119:-0.293072 120:0.0541433 
3000 1:0.0973449 2:-0.737066 3:-0.727124 4:-0.227985 5:-0.788066 6:-0.393701 7:-0.856255 8:-0.91504 9:0.438101 10:-0.727192 11:-0.673168 12:0.278097 13:-0.237423 14:0.0135747 15:-0.04354 16:-0.309355 17:0.826341 18:-0.734184 19:-0.528757 20:-0.177073 21:0.283743 22:0.576577 23:0.24344 24:0.0868259 25:0.948572 26:-0.571657 27:0.0451956 28:-0.524447 29:0.929929 30:0.819149 31:-0.0501088 32:0.410554 33:0.861604 34:-0.411673 35:0.311279 36:-0.517172 37:0.255501 38:0.356725 39:-0.288575 40:-0.136446 41:0.0963667 42:-0.732283 43:-0.72146 44:-0.218875 45:-0.796572 46:-0.408907 47:-0.866974 48:-0.919504 49:0.429829 50:-0.710692 51:-0.659545 52:0.336388 53:-0.228085 54:-0.040724 55:0.102224 56:-0.148505 57:0.847016 58:-0.733484 59:-0.531974 60:-0.20089 61:0.412141 62:0.484163 63:0.247272 64:0.328148 65:0.93914 66:-0.56355 67:0.0681652 68:-0.52514 69:0.712415 70:0.734104 71:0.21459 72:0.390127 73:0.853203 74:-0.424767 75:0.244043 76:-0.639443 77:0.337967 78:0.327869 79:-0.226683 80:0.0376468 81:0.0864708 82:-0.709835 83:-0.694644 84:-0.243361 85:-0.79448 86:-0.392713 87:-0.857287 88:-0.916502 89:0.492087 90:-0.702291 91:-0.643939 92:0.272308 93:-0.260166 94:-0.0181818 95:0.3149 96:-0.165252 97:0.884438 98:-0.726241 99:-0.51713 100:-0.197407 101:0.385393 102:0.513514 103:0.484747 104:0.427853 105:0.986489 106:-0.575725 107:0.0929269 108:-0.553777 109:0.776753 110:0.766082 111:0.0153103 112:0.383287 113:0.69661 114:-0.378696 115:0.121901 116:-0.519956 117:0.504393 118:0.453333 119:-0.300323 120:0.0654921 
3000 1:0.0964972 2:-0.736929 3:-0.727153 4:-0.228426 5:-0.78738 6:-0.393701 7:-0.856062 8:-0.914735 9:0.43717 10:-0.727064 11:-0.673216 12:0.276563 13:-0.235209 14:0.0135747 15:-0.043754 16:-0.307687 17:0.82457 18:-0.733896 19:-0.529038 20:-0.175793 21:0.273861 22:0.576577 23:0.249622 24:0.0821886 25:0.951648 26:-0.572539 27:0.0461359 28:-0.524447 29:0.934637 30:0.819149 31:-0.0516973 32:0.412669 33:0.842065 34:-0.405315 35:0.303905 36:-0.518687 37:0.240369 38:0.356725 39:-0.28394 40:-0.143753 41:0.0957594 42:-0.732232 43:-0.721532 44:-0.219761 45:-0.797737 46:-0.417004 47:-0.866297 48:-0.919412 49:0.430548 50:-0.710711 51:-0.659408 52:0.335624 53:-0.224948 54:-0.040724 55:0.101778 56:-0.145672 57:0.844603 58:-0.733284 59:-0.532524 60:-0.201526 61:0.41679 62:0.484163 63:0.246337 64:0.331315 65:0.935587 66:-0.562263 67:0.0675085 68:-0.52514 69:0.717354 70:0.734104 71:0.211476 72:0.392129 73:0.852479 74:-0.423214 75:0.245336 76:-0.637587 77:0.363419 78:0.327869 79:-0.238559 80:0.0484092 81:0.0842496 82:-0.709494 83:-0.694753 84:-0.243796 85:-0.793823 86:-0.392713 87:-0.856225 88:-0.915972 89:0.493989 90:-0.702539 91:-0.643763 92:0.271538 93:-0.258141 94:-0.00909091 95:0.320109 96:-0.163986 97:0.88309 98:-0.726069 99:-0.51742 100:-0.196759 101:0.357586 102:0.504505 103:0.500329 104:0.415819 105:0.990436 106:-0.576649 107:0.0946301 108:-0.553777 109:0.802897 110:0.777778 111:0.00857403 112:0.395285 113:0.690042 114:-0.376053 115:0.120226 116:-0.519401 117:0.483759 118:0.44 119:-0.292466 120:0.0583849 
-3000 1:0.0998222 2:-0.737769 3:-0.727347 4:-0.227985 5:-0.791184 6:-0.409449 7:-0.858647 8:-0.916176 9:0.440714 10:-0.727854 11:-0.67335 12:0.279632 13:-0.245245 14:0.00452489 15:-0.0421104 16:-0.31303 17:0.823542 18:-0.733589 19:-0.529009 20:-0.175793 21:0.280522 22:0.576577 23:0.24531 24:0.0852503 25:0.950009 26:-0.571675 27:0.0461901 28:-0.524447 29:0.929085 30:0.819149 31:-0.0494986 32:0.410389 33:0.834791 34:-0.402896 35:0.301341 36:-0.520707 37:0.237527 38:0.368421 39:-0.278929 40:-0.144641 41:0.0968636 42:-0.732534 43:-0.721619 44:-0.219318 45:-0.800842 46:-0.433198 47:-0.869705 48:-0.92082 49:0.4324 50:-0.710878 51:-0.659194 52:0.334861 53:-0.225618 54:-0.0497738 55:0.0955907 56:-0.146155 57:0.846596 58:-0.733382 59:-0.531991 60:-0.20089 61:0.414176 62:0.484163 63:0.249529 64:0.331002 65:0.938024 66:-0.562977 67:0.0682062 68:-0.52514 69:0.724047 70:0.734104 71:0.20964 72:0.396074 73:0.846554 74:-0.421192 75:0.243273 76:-0.639443 77:0.388503 78:0.327869 79:-0.246212 80:0.0613812 81:0.0849237 82:-0.709985 83:-0.695123 84:-0.244232 85:-0.797039 86:-0.408907 87:-0.859535 88:-0.91739 89:0.492506 90:-0.702226 91:-0.643759 92:0.270769 93:-0.261665 94:-0.0272727 95:0.313279 96:-0.164822 97:0.880763 98:-0.72593 99:-0.518017 100:-0.198703 101:0.37392 102:0.513514 103:0.493666 104:0.423096 105:0.990884 106:-0.576798 107:0.0947596 108:-0.553777 109:0.787631 110:0.777778 111:0.0152459 112:0.388529 113:0.701325 114:-0.380758 115:0.122738 116:-0.518293 117:0.488744 118:0.44 119:-0.297065 120:0.0590211 
-3000 1:0.102465 2:-0.738196 3:-0.727255 4:-0.226661 5:-0.795292 6:-0.417323 7:-0.859798 8:-0.91767 9:0.443647 10:-0.728267 11:-0.673194 12:0.281166 13:-0.250371 14:-0.00452489 15:-0.0470279 16:-0.31689 17:0.823121 18:-0.733769 19:-0.529357 20:-0.176433 21:0.276901 22:0.576577 23:0.245569 24:0.0826725 25:0.950009 26:-0.572276 27:0.0453377 28:-0.524447 29:0.915191 30:0.808511 31:-0.0465681 32:0.40541 33:0.841056 34:-0.405235 35:0.303167 36:-0.518687 37:0.249673 38:0.356725 39:-0.286697 40:-0.139214 41:0.0993149 42:-0.732834 43:-0.721438 44:-0.217545 45:-0.80542 46:-0.441296 47:-0.870639 48:-0.922416 49:0.43345 50:-0.711178 51:-0.659315 52:0.339443 53:-0.234665 54:-0.0588235 55:0.0913519 56:-0.153923 57:0.846063 58:-0.733517 59:-0.532317 60:-0.201526 61:0.4194 62:0.484163 63:0.243095 64:0.331594 65:0.936967 66:-0.563082 67:0.0672212 68:-0.524632 69:0.727706 70:0.734104 71:0.208793 72:0.398313 73:0.852318 74:-0.42358 75:0.244856 76:-0.638979 77:0.340558 78:0.327869 79:-0.229199 80:0.0379945 81:0.0873327 82:-0.710073 83:-0.694712 84:-0.24249 85:-0.801411 86:-0.417004 87:-0.860362 88:-0.91889 89:0.494697 90:-0.702755 91:-0.643846 92:0.273846 93:-0.273743 94:-0.0454545 95:0.313302 96:-0.171298 97:0.88414 98:-0.726356 99:-0.517362 100:-0.198055 101:0.370493 102:0.504505 103:0.492065 104:0.422111 105:0.989999 106:-0.576947 107:0.0938535 108:-0.553777 109:0.78762 110:0.777778 111:0.0136193 112:0.387525 113:0.696347 114:-0.377649 115:0.122896 116:-0.518847 117:0.500051 118:0.44 119:-0.299345 120:0.0653032 
-3000 1:0.104479 2:-0.738617 3:-0.727282 4:-0.226661 5:-0.795575 6:-0.417323 7:-0.859953 8:-0.917816 9:0.444064 10:-0.72829 11:-0.673136 12:0.281933 13:-0.251721 14:-0.00452489 15:-0.047164 16:-0.318003 17:0.823938 18:-0.733802 19:-0.5291 20:-0.177073 21:0.288041 22:0.576577 23:0.237925 24:0.0875991 25:0.948513 26:-0.571669 27:0.0452633 28:-0.525476 29:0.919405 30:0.808511 31:-0.049106 32:0.40657 33:0.850237 34:-0.408753 35:0.306073 36:-0.519697 37:0.255805 38:0.368421 39:-0.287011 40:-0.137117 41:0.0998117 42:-0.732943 43:-0.72145 44:-0.217545 45:-0.805041 46:-0.441296 47:-0.870981 48:-0.922372 49:0.432787 50:-0.711097 51:-0.65937 52:0.340206 53:-0.236444 54:-0.0588235 55:0.0924508 56:-0.155204 57:0.843662 58:-0.733202 59:-0.532722 60:-0.202161 61:0.41246 62:0.484163 63:0.247403 64:0.328473 65:0.934663 66:-0.561882 67:0.0673375 68:-0.524632 69:0.715462 70:0.734104 71:0.211988 72:0.391011 73:0.857962 74:-0.424314 75:0.248486 76:-0.637587 77:0.346627 78:0.327869 79:-0.231692 80:0.0407532 81:0.0878521 82:-0.710261 83:-0.694799 84:-0.242055 85:-0.802566 86:-0.425101 87:-0.860701 88:-0.919076 89:0.495904 90:-0.70283 91:-0.643657 92:0.274615 93:-0.271819 94:-0.0454545 95:0.311215 96:-0.170202 97:0.885023 98:-0.726491 99:-0.517258 100:-0.196759 101:0.370262 102:0.504505 103:0.491355 104:0.421552 105:0.984471 106:-0.575563 107:0.0916802 108:-0.554277 109:0.791046 110:0.777778 111:0.0111511 112:0.388444 113:0.697238 114:-0.379695 115:0.121105 116:-0.519401 117:0.491013 118:0.453333 119:-0.294608 120:0.0598636 
-559.6669767819531 1:0.0940419 2:-0.734635 3:-0.72526 4:-0.246083 5:-0.725469 6:-0.23622 7:-0.821071 8:-0.888596 9:0.435835 10:-0.726648 11:-0.673012 12:0.269659 13:-0.196796 14:0.0950226 15:-0.0213555 16:-0.286897 17:0.824099 18:-0.733835 19:-0.529084 20:-0.177073 21:0.273532 22:0.585586 23:0.253073 24:0.0814075 25:0.945129 26:-0.570943 27:0.0438156 28:-0.524961 29:0.915606 30:0.808511 31:-0.0475612 32:0.405035 33:0.838617 34:-0.404479 35:0.30228 36:-0.519697 37:0.248836 38:0.356725 39:-0.285319 40:-0.139035 41:0.0948871 42:-0.731747 43:-0.721181 44:-0.230837 45:-0.745852 46:-0.279352 47:-0.819289 48:-0.892872 49:0.426623 50:-0.709536 51:-0.658942 52:0.32646 53:-0.211925 54:-0.0135747 55:0.102792 56:-0.14045 57:0.842944 58:-0.733096 59:-0.532833 60:-0.202161 61:0.418661 62:0.493213 63:0.246509 64:0.33026 65:0.939308 66:-0.563199 67:0.0687329 68:-0.524632 69:0.691256 70:0.722543 71:0.220553 72:0.380243 73:0.858565 74:-0.425158 75:0.247835 76:-0.637587 77:0.364116 78:0.327869 79:-0.235529 80:0.0506412 81:0.0835424 82:-0.708237 83:-0.693554 84:-0.261646 85:-0.696387 86:-0.311741 87:-0.786995 88:-0.86069 89:0.493398 90:-0.701664 91:-0.642892 92:0.261538 93:-0.210823 94:0.0545455 95:0.322338 96:-0.13594 97:0.884761 98:-0.725942 99:-0.516661 100:-0.196759 101:0.365973 102:0.513514 103:0.498402 104:0.419048 105:0.995997 106:-0.57758 107:0.0972599 108:-0.551776 109:0.786414 110:0.777778 111:0.012589 112:0.386039 113:0.687283 114:-0.37463 115:0.119844 116:-0.518293 117:0.496755 118:0.453333 119:-0.298189 120:0.061608 
46.35810881427984 1:0.0928529 2:-0.734118 3:-0.724954 4:-0.252704 5:-0.686479 6:-0.11811 7:-0.799849 8:-0.872948 9:0.437392 10:-0.726353 11:-0.672346 12:0.265823 13:-0.188617 14:0.104072 15:-0.0231249 16:-0.283081 17:0.824198 18:-0.733794 19:-0.528997 20:-0.177073 21:0.276928 22:0.585586 23:0.250925 24:0.082987 25:0.945449 26:-0.570981 27:0.0439239 28:-0.524447 29:0.918544 30:0.808511 31:-0.048972 32:0.40608 33:0.83737 34:-0.404105 35:0.301798 36:-0.520202 37:0.249344 38:0.356725 39:-0.285963 40:-0.139044 41:0.0910888 42:-0.729435 43:-0.719536 44:-0.248117 45:-0.653415 46:-0.287449 47:-0.722725 48:-0.824008 49:0.424259 50:-0.708262 51:-0.65798 52:0.306606 53:-0.157842 54:0.0497738 55:0.14438 56:-0.0902171 57:0.846261 58:-0.733206 59:-0.531879 60:-0.20089 61:0.42571 62:0.502262 63:0.245256 64:0.33252 65:0.942801 66:-0.563993 67:0.0699984 68:-0.524124 69:0.701054 70:0.734104 71:0.215386 72:0.382252 73:0.857921 74:-0.424385 75:0.248417 76:-0.638051 77:0.36269 78:0.327869 79:-0.237096 80:0.0487497 81:0.0831225 82:-0.70852 83:-0.693925 84:-0.267305 85:-0.643268 86:-0.311741 87:-0.717551 88:-0.814905 89:0.493293 90:-0.701053 91:-0.64223 92:0.256923 93:-0.198885 94:0.0818182 95:0.331119 96:-0.128975 97:0.885763 98:-0.725942 99:-0.516342 100:-0.195462 101:0.366405 102:0.513514 103:0.498659 104:0.419535 105:0.998542 106:-0.57789 107:0.0986156 108:-0.550775 109:0.790234 110:0.777778 111:0.0105399 112:0.387494 113:0.682452 114:-0.372911 115:0.118244 116:-0.51663 117:0.496755 118:0.453333 119:-0.298189 120:0.061608 
12.93175736906277 1:-0.0528205 2:0.178887 3:0.140512 4:0.0178768 5:-0.730088 6:-0.0708661 7:-0.859005 8:-0.907874 9:0.225674 10:-0.340099 11:-0.325848 12:0.405447 13:-0.207801 14:0.0769231 15:-0.0411624 16:-0.2989 17:0.7626 18:-0.628854 19:-0.426222 20:-0.00864553 21:0.268484 22:0.612613 23:0.28178 24:0.084106 25:1 26:-0.568784 27:0.0819826 28:-0.492537 29:0.924092 30:0.840426 31:-0.0147601 32:0.424993 33:0.841547 34:-0.41808 35:0.285064 36:-0.506061 37:0.213733 38:0.426901 39:-0.299036 40:-0.178054 41:-0.0495498 42:0.161227 43:0.133643 44:0.0163934 45:-0.736064 46:-0.0688259 47:-0.866248 48:-0.910943 49:0.240519 50:-0.34318 51:-0.3265 52:0.411989 53:-0.188635 54:0.00452489 55:0.0966108 56:-0.125715 57:0.733826 58:-0.619996 59:-0.437492 60:-0.0171647 61:0.430634 62:0.511312 63:0.262365 64:0.34323 65:1 66:-0.563334 67:0.109311 68:-0.502793 69:0.669876 70:0.687861 71:0.196058 72:0.35956 73:0.878002 74:-0.449914 75:0.229363 76:-0.627842 77:0.35954 78:0.278689 79:-0.258045 80:0.0408745 81:-0.0412518 82:0.140554 83:0.135715 84:-0.0043535 85:-0.730297 86:-0.0526316 87:-0.859072 88:-0.907285 89:0.301417 90:-0.339432 91:-0.317261 92:0.385385 93:-0.22827 94:0.0363636 95:0.308043 96:-0.152159 97:0.791968 98:-0.615417 99:-0.419336 100:-0.0243112 101:0.341488 102:0.522523 103:0.496506 104:0.395508 105:0.996367 106:-0.571376 107:0.102492 108:-0.523762 109:0.838296 110:0.824561 111:0.0192081 112:0.417209 113:0.721511 114:-0.356334 115:0.168198 116:-0.529379 117:0.630797 118:0.6 119:-0.214241 120:0.179144 
2.086405034583045 1:-0.0560905 2:0.782825 3:0.732719 4:0.285367 5:-0.185372 6:0.787402 7:-0.573885 8:-0.625198 9:-0.0162358 10:0.753022 11:0.660491 12:0.792865 13:0.241307 14:0.574661 15:-0.0558435 16:-0.0622591 17:0.0975685 18:0.403899 19:0.399785 20:0.241755 21:0.376056 22:0.711712 23:0.210968 24:0.110078 25:0.598957 26:0.0150121 27:0.533614 28:-0.196603 29:0.972575 30:0.893617 31:-0.0646681 32:0.412675 33:0.612074 34:-0.242823 35:0.324993 36:-0.461616 37:0.205029 38:0.321637 39:-0.390616 40:-0.217321 41:-0.0526083 42:0.760576 43:0.727798 44:0.28755 45:-0.199836 46:0.846154 47:-0.582362 48:-0.636754 49:0.00127156 50:0.747679 51:0.663253 52:0.757923 53:0.273082 54:0.529412 55:0.112153 56:0.171172 57:0.106791 58:0.398812 59:0.387881 60:0.262556 61:0.555307 62:0.58371 63:0.140148 64:0.351285 65:0.475872 66:0.0391351 67:0.511783 68:-0.192991 69:0.636537 70:0.757225 71:0.169188 72:0.307446 73:0.476082 74:-0.207613 75:0.200045 76:-0.490023 77:0.530426 78:0.344262 79:-0.328174 80:0.109418 81:-0.0385886 82:0.72829 83:0.730939 84:0.260775 85:-0.185942 86:0.862348 87:-0.584817 88:-0.631121 89:0.090599 90:0.740302 91:0.67267 92:0.774615 93:0.265797 94:0.572727 95:0.308739 96:0.161869 97:0.233981 98:0.385929 99:0.418806 100:0.257699 101:0.532511 102:0.657658 103:0.406016 104:0.463321 105:0.54284 106:0.0200226 107:0.511875 108:-0.243622 109:0.701072 110:0.649123 111:-0.0799555 112:0.295748 113:0.538303 114:-0.229573 115:0.175412 116:-0.39357 117:0.478614 118:0.453333 119:-0.296112 120:0.050633 
5.958413009414652 1:-0.149103 2:0.872987 3:0.778893 4:0.54094 5:0.158637 6:0.818898 7:-0.203035 8:-0.282784 9:-0.0489019 10:0.941773 11:0.828505 12:0.893364 13:0.562722 14:0.773756 15:-0.00147099 16:0.177071 17:-0.0348804 18:0.751233 19:0.677752 20:0.333974 21:0.525836 22:0.801802 23:0.0350642 24:0.116919 25:0.337521 26:0.408613 27:0.797807 28:-0.142563 29:0.817253 30:0.904255 31:-0.159618 32:0.246999 33:0.498977 34:-0.0996208 35:0.404921 36:-0.268182 37:0.184488 38:0.461988 39:-0.459882 40:-0.285161 41:-0.152823 42:0.851544 43:0.772751 44:0.558706 45:0.162155 46:0.854251 47:-0.207803 48:-0.280046 49:-0.061339 50:0.942568 51:0.825011 52:0.879343 53:0.609075 54:0.773756 55:0.196086 56:0.467715 57:0.118476 58:0.706994 59:0.706482 60:0.333121 61:0.685272 62:0.710407 63:0.0198615 64:0.343792 65:0.224102 66:0.430221 67:0.788363 68:-0.106653 69:0.534829 70:0.722543 71:-0.0459684 72:0.133004 73:0.338253 74:-0.0354051 75:0.291843 76:-0.324826 77:0.339263 78:0.278689 79:-0.414597 80:-0.0661204 81:-0.146365 82:0.820263 83:0.774923 84:0.525468 85:0.18062 86:0.870445 87:-0.177336 88:-0.258172 89:0.0231466 90:0.934176 91:0.830658 92:0.886154 93:0.605896 94:0.8 95:0.328164 96:0.4299 97:0.0780136 98:0.739465 99:0.691507 100:0.296596 101:0.603532 102:0.765766 103:0.17114 104:0.358112 105:0.389836 106:0.39919 107:0.843421 108:-0.168084 109:0.580926 110:0.824561 111:-0.256658 112:0.072997 113:0.314724 114:-0.0383999 115:0.223923 116:-0.234479 117:0.582307 118:0.44 119:-0.457618 120:0.0225453 
-455.4748747964992 1:0.0991286 2:-0.984712 3:-0.982723 4:-0.469433 5:-0.916718 6:-0.622047 7:-0.985628 8:-0.98422 9:0.372157 10:-0.964902 11:-0.942755 12:0.0809359 13:-0.719214 14:-0.837104 15:-0.905387 16:-0.837498 17:0.635923 18:-0.885028 19:-0.774617 20:-0.153378 21:-0.406222 22:-0.513514 23:-0.696066 24:-0.581905 25:0.600537 26:-0.619615 27:-0.264463 28:-0.420484 29:0.282365 30:0.148936 31:-0.518135 32:-0.169162 33:0.791411 34:-0.503269 35:0.12239 36:-0.412626 37:0.259295 38:0.122807 39:-0.45045 40:-0.186642 41:0.133279 42:-0.987016 43:-0.982568 44:-0.46389 45:-0.923606 46:-0.651822 47:-0.987467 48:-0.985569 49:0.401205 50:-0.967037 51:-0.943513 52:0.0790378 53:-0.724129 54:-0.864253 55:-0.89652 56:-0.804788 57:0.657198 58:-0.881979 59:-0.776513 60:-0.141767 61:-0.401275 62:-0.538462 63:-0.6696 64:-0.512747 65:0.582371 66:-0.61337 67:-0.253637 68:-0.426612 69:0.0656754 70:0.017341 71:-0.32965 72:-0.191581 73:0.787036 74:-0.506398 75:0.0665074 76:-0.510441 77:0.246692 78:0.0983607 79:-0.347598 80:-0.0651449 81:0.11497 82:-0.987203 83:-0.983587 84:-0.49717 85:-0.915307 86:-0.603239 87:-0.986265 88:-0.984172 89:0.428622 90:-0.967996 91:-0.945844 92:0.00769231 93:-0.69682 94:-0.845455 95:-0.879671 96:-0.789956 97:0.679891 98:-0.8824 99:-0.779631 100:-0.136467 101:-0.377767 102:-0.540541 103:-0.627383 104:-0.463651 105:0.650052 106:-0.637502 107:-0.249854 108:-0.447224 109:0.266258 110:0.0877193 111:-0.483691 112:-0.138432 113:0.667929 114:-0.48825 115:-0.0387902 116:-0.404656 117:0.347132 118:0.293333 119:-0.208984 120:0.0375944 
2013.437876992121 1:0.0812153 2:-0.960573 3:-0.959048 4:-0.486648 5:-0.834241 6:-0.669291 7:-0.955894 8:-0.950431 9:0.185613 10:-0.881038 11:-0.878576 12:-0.212888 13:-0.383733 14:-0.58371 15:-0.612361 16:-0.505485 17:0.316797 18:-0.701833 19:-0.653697 20:-0.351905 21:0.136968 22:-0.036036 23:-0.255809 24:-0.0931923 25:0.323735 26:-0.333571 27:-0.0871915 28:-0.390118 29:0.851932 30:0.531915 31:-0.173903 32:0.343896 33:0.593712 34:-0.153504 35:0.414578 36:-0.262121 37:0.330056 38:0.461988 39:-0.28414 40:-0.101241 41:0.110235 42:-0.962357 43:-0.958212 44:-0.486043 45:-0.846845 46:-0.684211 47:-0.959926 48:-0.954802 49:0.223546 50:-0.883418 51:-0.877432 52:-0.216495 53:-0.39386 54:-0.647059 55:-0.585305 56:-0.409669 57:0.344671 58:-0.697856 59:-0.651642 60:-0.344565 61:0.270807 62:-0.131222 63:-0.248345 64:0.135822 65:0.456162 66:-0.376886 67:-0.0258775 68:-0.383951 69:0.569374 70:0.421965 71:-0.0671158 72:0.207082 73:0.394768 74:-0.121259 75:0.235672 76:-0.387471 77:0.526258 78:0.491803 79:-0.197851 80:0.164653 81:0.111622 82:-0.96413 83:-0.95865 84:-0.498041 85:-0.839287 86:-0.668016 87:-0.957457 88:-0.951994 89:0.266799 90:-0.886922 91:-0.881809 92:-0.219231 93:-0.399432 94:-0.636364 95:-0.507218 96:-0.414953 97:0.362061 98:-0.707494 99:-0.669917 100:-0.364019 101:0.252979 102:-0.0990991 103:-0.0587863 104:0.232857 105:0.481699 106:-0.41045 107:-0.0700222 108:-0.44072 109:0.690264 110:0.473684 111:-0.102518 112:0.31248 113:0.47938 114:-0.191885 115:0.16717 116:-0.155765 117:0.626895 118:0.48 119:-0.300985 120:0.144464 
-1541.311198002094 1:0.0954072 2:-0.970855 3:-0.968391 4:-0.459722 5:-0.862418 6:-0.708661 7:-0.969308 8:-0.962852 9:0.190867 10:-0.924259 11:-0.921957 12:-0.252781 13:-0.510337 14:-0.782805 15:-0.755506 16:-0.620571 17:0.253824 18:-0.790035 19:-0.766525 20:-0.456932 21:-0.00972115 22:-0.333333 23:-0.434062 24:-0.200708 25:0.244557 26:-0.441966 27:-0.267541 28:-0.420484 29:0.616032 30:0.234043 31:-0.287635 32:0.182807 33:0.581602 34:-0.243842 35:0.285643 36:-0.180303 37:0.37066 38:0.333333 39:-0.307127 40:-0.0673167 41:0.117732 42:-0.971725 43:-0.967517 44:-0.458573 45:-0.869959 46:-0.724696 47:-0.971976 48:-0.965069 49:0.217727 50:-0.926209 51:-0.922575 52:-0.233295 53:-0.476885 54:-0.773756 55:-0.710116 56:-0.510453 57:0.262783 58:-0.790519 59:-0.775415 60:-0.431659 61:0.125298 62:-0.321267 63:-0.372668 64:0.013412 65:0.203323 66:-0.457323 67:-0.290658 68:-0.441341 69:0.438674 70:0.0982659 71:-0.087369 72:0.178983 73:0.39895 74:-0.242503 75:0.0884041 76:-0.367981 77:0.373654 78:0.311475 79:-0.323602 80:0.00771153 81:0.119976 82:-0.972412 83:-0.966903 84:-0.462342 85:-0.871432 86:-0.692308 87:-0.97382 88:-0.967154 89:0.293796 90:-0.928366 91:-0.920678 92:-0.249231 93:-0.502179 94:-0.809091 95:-0.730254 96:-0.557405 97:0.363636 98:-0.797067 99:-0.766268 100:-0.452188 101:0.0803149 102:-0.378378 103:-0.38265 104:0.00399193 105:0.336589 106:-0.471055 107:-0.246972 108:-0.456728 109:0.614336 110:0.157895 111:-0.269333 112:0.226639 113:0.503696 114:-0.261255 115:0.101347 116:-0.0543237 117:0.60833 118:0.453333 119:-0.29857 120:0.137699 
-641.7297150728456 1:0.00947411 2:-0.825326 3:-0.831547 4:-0.843302 5:-0.766595 6:-0.425197 7:-0.871538 8:-0.909833 9:0.247428 10:-0.718112 11:-0.697793 12:-0.497507 13:-0.208109 14:0.0588235 15:-0.0543286 16:-0.300108 17:0.662232 18:-0.624878 19:-0.449185 20:-0.331412 21:0.25378 22:0.594595 23:0.230251 24:0.0548996 25:0.903569 26:-0.421792 27:0.204622 28:-0.3649 29:0.787129 30:0.755319 31:-0.175242 32:0.247941 33:0.715555 34:-0.195314 35:0.459933 36:-0.223737 37:0.168824 38:0.274854 39:-0.304018 40:-0.188119 41:0.018644 42:-0.833677 43:-0.838319 44:-0.848471 45:-0.784094 46:-0.417004 47:-0.878177 48:-0.917743 49:0.203436 50:-0.719255 51:-0.711312 52:-0.524246 53:-0.227536 54:0.00452489 55:0.0883935 56:-0.165722 57:0.599396 58:-0.617141 59:-0.473666 60:-0.364908 61:0.358434 62:0.493213 63:0.200844 64:0.258163 65:0.76369 66:-0.389836 67:0.175041 68:-0.399695 69:0.519001 70:0.722543 71:0.210466 72:0.252216 73:0.659341 74:-0.219449 75:0.333676 76:-0.409745 77:0.438707 78:0.377049 79:-0.254168 80:0.0851769 81:-0.0103212 82:-0.82805 83:-0.835059 84:-0.848933 85:-0.772105 86:-0.40081 87:-0.874291 88:-0.912641 89:0.25759 90:-0.715308 91:-0.705734 92:-0.517692 93:-0.224894 94:0.0363636 95:0.303627 96:-0.150549 97:0.634234 98:-0.606662 99:-0.45991 100:-0.358185 101:0.358974 102:0.567568 103:0.49553 104:0.396458 105:0.860889 106:-0.420196 107:0.202327 108:-0.436718 109:0.728527 110:0.80117 111:0.0484989 112:0.362156 113:0.59857 114:-0.207178 115:0.244386 116:-0.351996 117:0.554904 118:0.44 119:-0.0375036 120:0.255054 
15.24996516814434 1:0.126004 2:-0.87404 3:-0.853158 4:-0.908629 5:-0.759899 6:-0.440945 7:-0.873595 8:-0.907043 9:0.342522 10:-0.775722 11:-0.731277 12:-0.705409 13:-0.242131 14:0.122172 15:-0.0514697 16:-0.337988 17:0.582376 18:-0.658054 19:-0.507547 20:-0.565802 21:0.186718 22:0.63964 23:0.250313 24:0.00577971 25:0.72663 26:-0.362663 27:0.163302 28:-0.459599 29:0.696301 30:0.829787 31:-0.212047 32:0.1517 33:0.485689 34:-0.0656247 35:0.430425 36:-0.0737374 37:0.256395 38:0.368421 39:-0.267751 40:-0.126738 41:0.162065 42:-0.879722 43:-0.852257 44:-0.905627 45:-0.774089 46:-0.45749 47:-0.878567 48:-0.912186 49:0.39493 50:-0.780946 51:-0.727552 52:-0.695304 53:-0.189285 54:0.0769231 55:0.0233897 56:-0.174759 57:0.640278 58:-0.661204 59:-0.500677 60:-0.577877 61:0.292638 62:0.565611 63:0.137513 64:0.155856 65:0.655919 66:-0.348492 67:0.163856 68:-0.517014 69:0.57573 70:0.815029 71:0.163761 72:0.250989 73:0.607558 74:-0.0985487 75:0.44268 76:-0.365197 77:0.533471 78:0.442623 79:-0.272721 80:0.13176 81:0.193197 82:-0.879973 83:-0.842235 84:-0.905964 85:-0.75234 86:-0.408907 87:-0.868473 88:-0.902841 89:0.507107 90:-0.780334 91:-0.708495 92:-0.686923 93:-0.176228 94:0.1 95:0.364442 96:-0.101447 97:0.758996 98:-0.658139 99:-0.462787 100:-0.557861 101:0.408988 102:0.666667 103:0.525844 104:0.425139 105:0.82539 106:-0.390269 107:0.221648 108:-0.491246 109:0.714891 110:0.871345 111:0.0147704 112:0.318897 113:0.510805 114:-0.0972475 115:0.298958 116:-0.130266 117:0.589374 118:0.413333 119:-0.410335 120:0.0619964 
23.28452121549866 1:0.140405 2:-0.949913 3:-0.940842 4:-0.482675 5:-0.849883 6:-0.559055 7:-0.944489 8:-0.955235 9:0.377162 10:-0.858469 11:-0.825348 12:0.142309 13:-0.473049 14:-0.393665 15:-0.518205 16:-0.581654 17:0.702736 18:-0.73205 19:-0.570486 20:-0.0361832 21:0.0439264 22:0.216216 23:-0.116167 24:-0.165298 25:0.885164 26:-0.559867 27:0.00807041 28:-0.447761 29:0.848766 30:0.734043 31:-0.198326 32:0.276895 33:0.871233 34:-0.430048 35:0.289041 36:-0.456061 37:0.227646 38:0.298246 39:-0.329184 40:-0.167155 41:0.159813 42:-0.952268 43:-0.941593 44:-0.474967 45:-0.853047 46:-0.546559 47:-0.948909 48:-0.957356 49:0.362312 50:-0.855501 51:-0.826886 52:0.158457 53:-0.448486 54:-0.429864 55:-0.467371 56:-0.47673 57:0.700915 58:-0.725332 59:-0.574653 60:-0.027972 61:0.186 62:0.19457 63:-0.0711073 64:0.0587684 65:0.889336 66:-0.572826 67:0.0140435 68:-0.485018 69:0.510667 70:0.618497 71:0.0611518 72:0.191661 73:0.896098 74:-0.469361 75:0.215495 76:-0.606497 77:0.439507 78:0.262295 79:-0.266424 80:0.0942357 81:0.156255 82:-0.951513 83:-0.939571 84:-0.491946 85:-0.848648 86:-0.530364 87:-0.944749 88:-0.955104 89:0.409758 90:-0.851028 91:-0.820587 92:0.137692 93:-0.461337 94:-0.4 95:-0.370506 96:-0.488302 97:0.707898 98:-0.708715 99:-0.561243 100:-0.0482982 101:0.122082 102:0.171171 103:0.0886177 104:0.107923 105:0.923969 106:-0.580315 107:0.0327356 108:-0.512756 109:0.704194 110:0.707602 111:-0.132639 112:0.253119 113:0.78566 114:-0.388744 115:0.174956 116:-0.512195 117:0.491042 118:0.44 119:-0.202016 120:0.11622 
-357.2218321082543 1:0.114521 2:-0.965182 3:-0.960127 4:-0.51269 5:-0.884673 6:-0.614173 7:-0.966724 8:-0.970558 9:0.312497 10:-0.90678 11:-0.886486 12:-0.106252 13:-0.594859 14:-0.638009 15:-0.721087 16:-0.703608 17:0.696233 18:-0.769395 19:-0.617637 20:-0.0432277 21:-0.145046 22:-0.117117 23:-0.341336 24:-0.323772 25:0.854385 26:-0.556932 27:-0.00922042 28:-0.448276 29:0.61427 30:0.468085 31:-0.298612 32:0.117044 33:0.900835 34:-0.487655 35:0.231343 36:-0.418687 37:0.290806 38:0.169591 39:-0.274325 40:-0.0764925 41:0.147898 42:-0.968405 43:-0.960462 44:-0.5144 45:-0.887325 46:-0.611336 47:-0.969001 48:-0.971628 49:0.358636 50:-0.910977 51:-0.886295 52:-0.0996564 53:-0.574063 54:-0.638009 55:-0.685137 56:-0.629235 57:0.730769 58:-0.771032 59:-0.620176 60:-0.0521297 61:0.0190565 62:-0.0950226 63:-0.373043 64:-0.157994 65:0.840552 66:-0.553634 67:0.00366649 68:-0.448451 69:0.415017 70:0.50289 71:-0.148494 72:0.0402099 73:0.961582 74:-0.520365 75:0.19781 76:-0.589791 77:0.40886 78:0.295082 79:-0.282061 80:0.0588631 81:0.13464 82:-0.9687 83:-0.961047 84:-0.51502 85:-0.880723 86:-0.587045 87:-0.967419 88:-0.969916 89:0.391157 90:-0.91011 91:-0.886619 92:-0.104615 93:-0.568409 94:-0.636364 95:-0.6441 96:-0.628139 97:0.721478 98:-0.758573 99:-0.617613 100:-0.000324149 101:-0.0649049 102:-0.135135 103:-0.245068 104:-0.128448 105:0.847703 106:-0.550339 107:0.0122426 108:-0.458729 109:0.501019 110:0.461988 111:-0.240233 112:0.09717 113:0.67908 114:-0.386535 115:0.0970189 116:-0.48337 117:0.451896 118:0.4 119:-0.287749 120:0.0461145 
1582.513852700932 1:0.11081 2:-0.969541 3:-0.965077 4:-0.542264 5:-0.898247 6:-0.653543 7:-0.980026 8:-0.977697 9:0.282666 10:-0.928926 11:-0.914098 12:-0.202915 13:-0.645487 14:-0.773756 15:-0.844132 16:-0.769822 17:0.554804 18:-0.817482 19:-0.714825 20:-0.212296 21:-0.30305 22:-0.36036 23:-0.557903 24:-0.47871 25:0.666403 26:-0.564116 27:-0.14936 28:-0.409161 29:0.429487 30:0.265957 31:-0.460179 32:-0.064944 33:1 34:-0.573903 35:0.191581 36:-0.426263 37:0.28613 38:0.380117 39:-0.319903 40:-0.136661 41:0.133301 42:-0.97127 43:-0.965124 44:-0.529464 45:-0.898914 46:-0.651822 47:-0.98045 48:-0.977684 49:0.300641 50:-0.930971 51:-0.916095 52:-0.177549 53:-0.634897 54:-0.773756 55:-0.806862 56:-0.706777 57:0.564319 58:-0.81525 59:-0.721063 60:-0.18309 61:-0.194547 62:-0.402715 63:-0.514151 64:-0.306335 65:0.699469 66:-0.582662 67:-0.141324 68:-0.342306 69:0.198795 70:0.190751 71:-0.128954 72:-0.0339679 73:0.881635 74:-0.514712 75:0.133036 76:-0.523898 77:0.372771 78:0.0819672 79:-0.319292 80:0.0409634 81:0.124772 82:-0.972474 83:-0.96616 84:-0.547236 85:-0.889503 86:-0.62753 87:-0.981483 88:-0.97639 89:0.338594 90:-0.932275 91:-0.918255 92:-0.213077 93:-0.633809 94:-0.772727 95:-0.782803 96:-0.709755 97:0.623804 98:-0.815327 99:-0.713562 100:-0.183793 101:-0.176485 102:-0.369369 103:-0.452797 104:-0.259794 105:0.743361 106:-0.59513 107:-0.129907 108:-0.412206 109:0.465649 110:0.22807 111:-0.377559 112:0.0334401 113:0.69807 114:-0.478799 115:-0.00439846 116:-0.433481 117:0.559728 118:0.32 119:-0.23466 120:0.165995 
-384.8453846443788 1:0.110876 2:-0.973572 3:-0.969351 4:-0.551092 5:-0.912549 6:-0.661417 7:-0.985692 8:-0.982821 9:0.271351 10:-0.943546 11:-0.93106 12:-0.252781 13:-0.683749 14:-0.837104 15:-0.912993 16:-0.820702 17:0.462401 18:-0.855935 19:-0.783699 20:-0.334614 21:-0.414937 22:-0.54955 23:-0.691974 24:-0.576414 25:0.589458 26:-0.618733 27:-0.272432 28:-0.383942 29:0.188018 30:0.0212766 31:-0.469405 32:-0.165529 33:0.940543 34:-0.589707 35:0.117886 36:-0.366162 37:0.188219 38:0.415205 39:-0.386551 40:-0.237814 41:0.12078 42:-0.974266 43:-0.969687 44:-0.536996 45:-0.915642 46:-0.651822 47:-0.986604 48:-0.983669 49:0.25756 50:-0.941915 51:-0.933552 52:-0.228713 53:-0.677842 54:-0.855204 55:-0.905396 56:-0.778898 57:0.454284 58:-0.847795 59:-0.787498 60:-0.3274 61:-0.320214 62:-0.565611 63:-0.693247 64:-0.46296 65:0.524176 66:-0.587377 67:-0.256538 68:-0.408837 69:0.0829325 70:-0.0289017 71:-0.356617 72:-0.185654 73:0.770213 74:-0.51764 75:0.0422825 76:-0.565661 77:0.319061 78:0.147541 79:-0.314901 80:-0.00298852 81:0.113876 82:-0.976063 83:-0.971281 84:-0.544623 85:-0.909445 86:-0.635628 87:-0.986745 88:-0.982716 89:0.327929 90:-0.948088 91:-0.936733 92:-0.234615 93:-0.683842 94:-0.854545 95:-0.885204 96:-0.781838 97:0.499639 98:-0.855246 99:-0.794814 100:-0.308914 101:-0.334568 102:-0.585586 103:-0.656254 104:-0.435133 105:0.575815 106:-0.609597 107:-0.265734 108:-0.394697 109:0.213105 110:-0.0760234 111:-0.445761 112:-0.114085 113:0.940989 114:-0.603 115:0.00930682 116:-0.377494 117:0.549129 118:0.306667 119:-0.321092 120:0.108654 
659.3002881011682 1:-0.0232036 2:-0.563382 3:-0.580166 4:-0.433679 5:-0.746026 6:-0.417323 7:-0.809156 8:-0.884138 9:0.403114 10:-0.645789 11:-0.592422 12:0.0318374 13:-0.262258 14:0.0135747 15:-0.108064 16:-0.352219 17:0.785082 18:-0.701705 19:-0.502642 20:-0.178354 21:0.242196 22:0.585586 23:0.176294 24:0.0248433 25:0.877873 26:-0.525369 27:0.059625 28:-0.524447 29:0.775324 30:0.808511 31:-0.152408 32:0.244393 33:0.782847 34:-0.358435 35:0.319111 36:-0.530303 37:0.169267 38:0.415205 39:-0.359967 40:-0.235367 41:0.025545 42:-0.559526 43:-0.561687 44:-0.451041 45:-0.75849 46:-0.327935 47:-0.84686 48:-0.903144 49:0.316107 50:-0.593555 51:-0.56055 52:0.0454372 53:-0.196131 54:-0.0135747 55:0.122331 56:-0.117661 57:0.79929 58:-0.687057 59:-0.491122 60:-0.191354 61:0.451244 62:0.475113 63:0.253559 64:0.365495 65:0.917053 66:-0.549011 67:0.0738291 68:-0.526663 69:0.793388 70:0.66474 71:0.196071 72:0.456134 73:0.810669 74:-0.411456 75:0.224424 76:-0.62413 77:0.28591 78:0.311475 79:-0.269049 80:-0.0200031 81:0.062049 82:-0.587631 83:-0.573278 84:-0.352199 85:-0.766025 86:-0.336032 87:-0.845649 88:-0.905067 89:0.454071 90:-0.610954 91:-0.554715 92:0.157692 93:-0.232368 94:-0.0181818 95:0.236119 96:-0.166205 97:0.860823 98:-0.674522 99:-0.461328 100:-0.188331 101:0.389907 102:0.513514 103:0.456479 104:0.41672 105:0.91186 106:-0.546002 107:0.077891 108:-0.550275 109:0.761956 110:0.789474 111:-0.0914755 112:0.302202 113:0.637468 114:-0.321477 115:0.146401 116:-0.508869 117:0.418766 118:0.413333 119:-0.266473 120:0.034135 
-283.6391030680417 1:0.0134047 2:-0.449576 3:-0.457732 4:-0.521077 5:-0.704643 6:-0.299213 7:-0.793134 8:-0.868712 9:0.360578 10:-0.520953 11:-0.471227 12:-0.0663598 13:-0.239123 14:0.040724 15:-0.133329 16:-0.349498 17:0.731683 18:-0.640093 19:-0.446092 20:-0.201409 21:0.270077 22:0.540541 23:0.146515 24:0.0420162 25:0.832287 26:-0.494837 27:0.0681689 28:-0.517241 29:0.786076 30:0.819149 31:-0.132564 32:0.262069 33:0.761893 34:-0.332548 35:0.335168 36:-0.516667 37:0.100068 38:0.321637 39:-0.296899 40:-0.233618 41:0.0465354 42:-0.449804 43:-0.445152 44:-0.541427 45:-0.722297 46:-0.206478 47:-0.827908 48:-0.889413 49:0.299038 50:-0.529719 51:-0.498733 52:-0.000381825 53:-0.192635 54:-0.0226244 55:0.103376 56:-0.119105 57:0.764398 58:-0.654144 59:-0.463619 60:-0.181818 61:0.421456 62:0.447964 63:0.16139 64:0.298306 65:0.868221 66:-0.50907 67:0.0936185 68:-0.504317 69:0.803547 70:0.82659 71:0.363426 72:0.513505 73:0.724033 74:-0.341833 75:0.241655 76:-0.596288 77:0.271197 78:0.47541 79:-0.117872 80:0.0343329 81:0.0408761 82:-0.378389 83:-0.363646 84:-0.471485 85:-0.708406 86:-0.287449 87:-0.809256 88:-0.87387 89:0.444403 90:-0.44371 91:-0.378323 92:-0.132308 93:-0.23652 95:0.109101 96:-0.218874 97:0.748984 98:-0.57313 99:-0.377436 100:-0.301135 101:0.327267 102:0.414414 103:0.264163 104:0.292993 105:0.772715 106:-0.404482 107:0.168106 108:-0.555778 109:0.636724 110:0.672515 111:-0.092097 112:0.239002 113:0.61048 114:-0.318662 115:0.126552 116:-0.455654 117:0.378882 118:0.36 119:-0.325084 120:-0.0181736 
51.50462023875296 1:-0.232306 2:-0.218096 3:-0.309736 4:-0.541382 5:-0.600847 6:-0.23622 7:-0.678049 8:-0.790351 9:0.218446 10:-0.314895 11:-0.300465 12:-0.107787 13:-0.198225 14:0.104072 15:-0.185584 16:-0.351347 17:0.588173 18:-0.512499 19:-0.349338 20:-0.241114 21:0.275708 22:0.54955 23:0.0486613 24:-0.000232981 25:0.758299 26:-0.38581 27:0.160211 28:-0.503345 29:0.737796 30:0.712766 31:-0.16648 32:0.23106 33:0.71135 34:-0.22222 35:0.433156 36:-0.439899 37:-0.0293752 38:0.497076 39:-0.358629 40:-0.359368 41:-0.500086 42:-0.158629 43:-0.338418 44:-0.588835 45:-0.714561 46:-0.238866 47:-0.798524 48:-0.87647 49:0.109686 50:-0.318571 51:-0.338179 52:-0.0607102 53:-0.28941 54:-0.0678733 55:-0.0347075 56:-0.251675 57:0.560816 58:-0.504385 59:-0.364099 60:-0.159568 61:0.320571 62:0.420814 63:0.112921 64:0.200559 65:0.613101 66:-0.366471 67:0.103223 68:-0.461656 69:0.671471 70:0.734104 71:0.27711 72:0.392092 73:0.518509 74:-0.240918 75:0.19692 76:-0.553596 77:0.313106 78:0.459016 79:-0.0805648 80:0.0852932 81:-0.14968 82:-0.0892244 83:-0.135981 84:-0.494123 85:-0.71712 86:-0.246964 87:-0.825044 88:-0.88426 89:0.209474 90:-0.101487 91:-0.106432 92:-0.186154 93:-0.390262 94:-0.0363636 95:-0.169656 96:-0.436538 97:0.457718 98:-0.313918 99:-0.20455 100:-0.331605 101:0.0596463 102:0.351351 103:0.0257644 104:-0.0205574 105:0.516748 106:-0.155531 107:0.279489 108:-0.428714 109:0.420786 110:0.625731 111:-0.259137 112:0.00376202 113:0.0517497 114:0.137873 115:0.222597 116:-0.17184 117:0.359915 118:0.706667 119:-0.325748 120:-0.0793245 
-53.36991241600338 1:-0.0749726 2:0.23211 3:0.184354 4:0.0779077 5:-0.690742 6:-0.0472441 7:-0.817445 8:-0.882896 9:0.0448707 10:-0.301235 11:-0.337709 12:0.429229 13:-0.245445 14:-0.257919 15:0.282029 16:-0.127394 17:0.165632 18:-0.672034 19:-0.669874 20:-0.173231 21:0.0533418 22:0.117117 23:0.905517 24:0.295014 25:0.287768 26:-0.85083 27:-0.738026 28:-0.424601 29:0.7156 30:0.340426 31:0.657347 32:0.81427 33:0.578449 34:-0.853089 35:-0.516709 36:0.0489899 37:0.598451 38:0.473684 39:0.927971 40:0.673189 41:-0.0917954 42:0.220776 43:0.176747 44:0.0908285 45:-0.697035 46:-0.0283401 47:-0.818872 48:-0.885144 49:0.0766392 50:-0.30684 51:-0.336263 52:0.425735 53:-0.267794 54:-0.266968 55:0.561508 56:0.0559722 57:0.21617 58:-0.683633 59:-0.677464 60:-0.15321 61:0.373724 62:0.140271 63:0.919313 64:0.772968 65:0.215963 66:-0.833562 67:-0.751876 68:-0.436262 69:0.741997 70:0.190751 71:0.747347 72:0.830066 73:0.607209 74:-0.831976 75:-0.523264 76:-0.00696056 77:0.73225 78:-0.0491803 79:0.471224 80:0.806554 81:-0.0768457 82:0.195859 83:0.178048 84:0.0539835 85:-0.692075 86:0.00404858 87:-0.822238 88:-0.885327 89:0.139686 90:-0.303531 91:-0.329578 92:0.426923 93:-0.25559 94:-0.236364 95:0.632141 96:0.0112117 97:0.258814 98:-0.668582 99:-0.663028 100:-0.170178 101:0.399975 102:0.189189 103:0.895586 104:0.77068 105:0.349135 106:-0.840613 107:-0.701626 108:-0.475238 109:0.524379 110:0.0760234 111:0.728607 112:0.766058 113:0.716388 114:-0.854567 115:-0.473827 116:0.0449002 117:0.448486 118:0.133333 119:1 120:0.763566 
5.306320139888887 1:0.05783 2:0.756434 3:0.758362 4:0.470316 5:0.276864 6:0.771654 7:-0.0821121 8:-0.14016 9:0.0446483 10:0.779014 11:0.711053 12:0.873418 13:0.361422 14:0.529412 15:0.32998 16:0.212099 17:0.0022915 18:0.438962 19:0.386631 20:0.253282 21:0.24242 22:0.378378 23:0.843417 24:0.357058 25:-0.0460426 26:-0.178794 27:-0.155401 28:-0.189398 29:0.842227 30:0.617021 31:0.822001 32:0.927002 33:0.218569 34:-0.692324 35:-0.548965 36:0.40404 37:0.707672 38:0.614035 39:0.858574 40:0.704979 41:0.050676 42:0.736601 43:0.750543 44:0.487373 45:0.263167 46:0.813765 47:-0.086079 48:-0.152435 49:0.0784222 50:0.769688 51:0.717163 52:0.877052 53:0.408293 54:0.493213 55:0.69788 56:0.57944 57:0.0109292 58:0.433999 59:0.374749 60:0.258106 61:0.591021 62:0.393665 63:0.953668 64:0.893919 65:-0.132247 66:-0.16938 67:-0.169192 68:-0.227527 69:0.858892 70:0.306358 71:0.823242 72:0.933201 73:0.404621 74:-0.70832 75:-0.503165 76:0.296056 77:0.897314 78:-0.0819672 79:0.418435 80:0.936541 81:0.106627 82:0.69909 83:0.76681 84:0.469743 85:0.292301 86:0.82996 87:-0.0986846 88:-0.135516 89:0.143884 90:0.766857 91:0.722336 92:0.876923 93:0.456457 94:0.563636 95:0.706488 96:0.51163 97:0.0763668 98:0.433517 99:0.38355 100:0.259643 101:0.665597 102:0.441441 103:0.801968 104:0.869278 105:-0.0173959 106:-0.1748 107:-0.146169 108:-0.211106 109:0.733223 110:0.28655 111:0.774089 112:0.907911 113:0.333946 114:-0.667559 115:-0.486438 116:0.403548 117:0.762882 118:0.0266667 119:0.381824 120:0.747238 
2.214832163826866 1:0.245738 2:0.774898 3:0.862227 4:0.963805 5:0.881243 6:0.779528 7:0.873537 8:0.795509 9:0.118237 10:0.923947 11:0.883881 12:0.952436 13:0.796358 14:0.809955 15:0.430968 16:0.576123 17:0.0652645 18:0.750749 19:0.732644 20:0.317963 21:0.323695 22:0.540541 23:0.686277 24:0.315875 25:-0.151902 26:0.23873 27:0.226682 28:-0.120432 29:0.767228 30:0.62766 31:0.505481 32:0.684656 33:0.0201973 34:-0.546138 35:-0.501863 36:0.395455 37:0.700767 38:0.602339 39:0.53799 40:0.553522 41:0.263815 42:0.748925 43:0.859399 44:1 45:0.863372 46:0.82996 47:0.847226 48:0.761975 49:0.14529 50:0.913341 51:0.88702 52:0.94349 53:0.827124 54:0.828054 55:0.732836 56:0.939895 57:0.085193 58:0.742549 59:0.723999 60:0.320407 61:0.660473 62:0.520362 63:0.583255 64:0.709878 65:-0.1951 66:0.23854 67:0.243301 68:-0.14322 69:0.661785 70:0.260116 71:0.360094 72:0.544555 73:0.117997 74:-0.515907 75:-0.460245 76:0.232483 77:0.989154 78:-0.0163934 79:0.204679 80:0.878415 81:0.334777 82:0.707063 83:0.878264 84:1 85:0.871692 86:0.82996 87:0.860676 88:0.776702 89:0.224441 90:0.907115 91:0.89733 92:0.956923 93:0.838514 94:0.854545 95:0.779025 96:0.847707 97:0.152477 98:0.747917 99:0.74314 100:0.341329 101:0.689082 102:0.513514 103:0.427775 104:0.654888 105:-0.139734 106:0.257174 107:0.240493 108:-0.15958 109:0.587607 110:0.263158 111:0.402386 112:0.586046 113:0.163306 114:-0.498118 115:-0.399182 116:0.38969 117:0.968433 118:0.08 119:0.407769 120:0.92996 
26.29355734355697 1:0.112153 2:-0.975258 3:-0.97145 4:-0.419996 5:-0.863963 6:-0.811024 7:-0.935365 8:-0.947542 9:0.197804 10:-0.925911 11:-0.923299 12:-0.0318374 13:-0.491117 14:-0.701357 15:-0.312278 16:-0.43353 17:0.323015 18:-0.876985 19:-0.843962 20:-0.346782 21:-0.110182 22:-0.171171 23:0.45502 24:0.0646929 25:0.408066 26:-0.895134 27:-0.732033 28:-0.458569 29:0.704184 30:0.265957 31:0.501287 32:0.737636 33:0.685939 34:-0.901752 35:-0.511679 36:0.0368687 37:0.473564 38:0.345029 39:0.711321 40:0.500001 41:0.143349 42:-0.978084 43:-0.971889 44:-0.425786 45:-0.86049 46:-0.797571 47:-0.93814 48:-0.947183 49:0.216373 50:-0.93037 51:-0.927624 52:-0.0378007 53:-0.497031 54:-0.710407 55:-0.190684 56:-0.314378 57:0.319025 58:-0.875103 59:-0.853515 60:-0.33185 61:0.160491 62:-0.158371 63:0.371903 64:0.412525 65:0.322654 66:-0.87916 67:-0.756794 68:-0.44642 69:0.760476 70:0.0982659 71:0.742174 72:0.876698 73:0.600936 74:-0.845365 75:-0.54487 76:-0.025058 77:0.63694 78:0.114754 79:0.641345 80:0.777676 81:0.138486 82:-0.97878 83:-0.972101 84:-0.438833 85:-0.859688 86:-0.765182 87:-0.937771 88:-0.948066 89:0.254035 90:-0.929372 91:-0.928224 92:-0.0307692 93:-0.456227 94:-0.654545 95:-0.164108 96:-0.325425 97:0.370426 98:-0.876734 99:-0.853985 100:-0.331605 101:0.265072 102:-0.0900901 103:0.353138 104:0.478362 105:0.409458 106:-0.883537 107:-0.724053 108:-0.475238 109:0.474809 110:-0.0175439 111:0.574393 112:0.668841 113:0.748425 114:-0.868738 115:-0.473329 116:0.094235 117:0.695934 118:0.146667 119:0.462912 120:0.702505 
-6.906975784688447 1:0.12182 2:-0.985055 3:-0.980997 4:-0.443831 5:-0.887618 6:-0.866142 7:-0.975068 8:-0.967273 9:0.255115 10:-0.968833 11:-0.961015 12:-0.0318374 13:-0.620546 14:-0.936652 15:-0.698227 16:-0.636655 17:0.382793 18:-0.938798 19:-0.899318 20:-0.341659 21:-0.258267 22:-0.468468 23:-0.0207502 24:-0.160789 25:0.446883 26:-0.923049 27:-0.749533 28:-0.441071 29:0.611971 30:0.0744681 31:0.247289 32:0.574173 33:0.863118 34:-0.954672 35:-0.46643 36:-0.0378788 37:0.597526 38:0.380117 39:0.755291 40:0.616036 41:0.156533 42:-0.987325 43:-0.980754 44:-0.446611 45:-0.886493 46:-0.862348 47:-0.976231 48:-0.967108 49:0.295555 50:-0.973213 51:-0.963046 52:-0.0171821 53:-0.613528 54:-0.936652 55:-0.620763 56:-0.538669 57:0.404713 58:-0.940376 59:-0.90679 60:-0.324221 61:-0.0248587 62:-0.457014 63:-0.0960504 64:0.116191 65:0.377152 66:-0.919163 67:-0.784539 68:-0.402235 69:0.573232 70:-0.144509 71:0.288113 72:0.563622 73:0.658054 74:-0.889936 75:-0.568787 76:0.0700696 77:0.387324 78:0.131148 79:0.920698 80:0.695139 81:0.141414 82:-0.988027 83:-0.982084 84:-0.467566 85:-0.890385 86:-0.854251 87:-0.97596 88:-0.968408 89:0.319205 90:-0.972664 91:-0.965131 92:-0.0315385 93:-0.604279 94:-0.936364 95:-0.632745 96:-0.56079 97:0.414853 98:-0.935016 99:-0.90866 100:-0.332253 101:0.0427947 102:-0.414414 103:-0.112144 104:0.159503 105:0.444608 106:-0.923191 107:-0.758772 108:-0.444222 109:0.400503 110:-0.111111 111:0.417291 112:0.548145 113:0.759606 114:-0.927439 115:-0.543754 116:0.237251 117:0.50626 118:0.0533333 119:0.675888 120:0.67374 
15.58950939916784 1:0.145888 2:-0.988574 3:-0.982558 4:-0.447363 5:-0.909756 6:-0.905512 7:-0.988445 8:-0.978161 9:0.325007 10:-0.984869 11:-0.970529 12:0.0241657 13:-0.674235 14:-1 15:-0.853546 16:-0.741944 17:0.477785 18:-0.976525 19:-0.922633 20:-0.317963 21:-0.384756 22:-0.756757 23:-0.393883 24:-0.330822 25:0.507585 26:-0.957554 27:-0.766777 28:-0.402985 29:0.224166 30:-0.255319 31:0.0414106 32:0.255887 33:0.828876 34:-0.973683 35:-0.517886 36:0.030303 37:0.547177 38:0.450292 39:0.363933 40:0.378831 41:0.153011 42:-0.989553 43:-0.983553 44:-0.452813 45:-0.913601 46:-0.919028 47:-0.989393 48:-0.978938 49:0.323999 50:-0.985244 51:-0.973 52:0.00343643 53:-0.661324 54:-1 55:-0.827113 56:-0.673426 57:0.469768 58:-0.973612 59:-0.931595 60:-0.309599 61:-0.230628 62:-0.746606 63:-0.422997 64:-0.128045 65:0.445286 66:-0.949102 67:-0.792036 68:-0.401727 69:0.40172 70:-0.387283 71:0.0285261 72:0.363898 73:0.782117 74:-0.927847 75:-0.536763 76:-0.00835267 77:0.0899458 78:0.0655738 79:0.986864 80:0.485153 81:0.137823 82:-0.990639 83:-0.98536 84:-0.468002 85:-0.914654 86:-0.894737 87:-0.989228 88:-0.979756 89:0.354296 90:-0.987575 91:-0.977228 92:0.0115385 93:-0.656725 94:-1 95:-0.84634 96:-0.696639 97:0.487933 98:-0.975181 99:-0.939087 100:-0.29919 101:-0.176176 102:-0.702703 103:-0.478642 104:-0.124693 105:0.47191 106:-0.959626 107:-0.794805 108:-0.407204 109:0.193429 110:-0.426901 111:0.135179 112:0.315506 113:0.886984 114:-0.983324 115:-0.545645 116:0.529379 117:0.291113 118:-0.0933333 119:0.618929 120:0.497729 
-2473.767713730114 1:0.0932052 2:-0.960438 3:-0.957424 4:-0.531671 5:-0.830668 6:-0.708661 7:-0.850621 8:-0.915092 9:0.203809 10:-0.915333 11:-0.910782 12:-0.285002 13:-0.361268 14:-0.457014 15:0.152008 16:-0.220042 17:0.315187 18:-0.880058 19:-0.847705 20:-0.483189 21:0.0147604 22:0.045045 23:0.799116 24:0.24184 25:0.340015 26:-0.867363 27:-0.731092 28:-0.460628 29:0.709043 30:0.308511 31:0.532129 32:0.746199 33:0.647955 34:-0.869355 35:-0.491723 36:-0.00454545 37:0.420483 38:0.309942 39:0.710515 40:0.463209 41:0.108943 42:-0.962684 43:-0.958539 44:-0.536996 45:-0.826728 46:-0.692308 47:-0.850721 48:-0.913479 49:0.216746 50:-0.916405 51:-0.912343 52:-0.287514 53:-0.375572 54:-0.447964 55:0.461941 56:-0.0339848 57:0.321983 58:-0.875234 59:-0.851442 60:-0.46281 61:0.315114 62:0.104072 63:0.844109 64:0.693049 65:0.338499 66:-0.867434 67:-0.733284 68:-0.447943 69:0.677389 70:0.190751 71:0.951374 72:0.871282 73:0.716566 74:-0.85617 75:-0.483699 76:0.0584687 77:0.604749 78:0.0819672 79:0.516058 80:0.690266 81:0.105765 82:-0.96468 83:-0.959744 84:-0.543317 85:-0.819923 86:-0.668016 87:-0.855427 88:-0.912893 89:0.27875 90:-0.920552 91:-0.914649 92:-0.276923 93:-0.316322 94:-0.409091 95:0.496497 96:-0.0355845 97:0.367908 98:-0.883261 99:-0.860381 100:-0.463209 101:0.439028 102:0.162162 103:0.775732 104:0.758308 105:0.422251 106:-0.894883 107:-0.732311 108:-0.467734 109:0.568457 110:0.111111 111:0.550382 112:0.696281 113:0.830556 114:-0.897058 115:-0.461382 116:0.179601 117:0.592271 118:0.0533333 119:0.748284 120:0.784967 
-52.55419679750447 1:0.101595 2:-0.965802 3:-0.962209 4:-0.51578 5:-0.823348 6:-0.76378 7:-0.885466 8:-0.918389 9:0.205699 10:-0.917532 11:-0.912717 12:-0.300345 13:-0.331084 14:-0.529412 15:0.0492965 16:-0.200327 17:0.328044 18:-0.874191 19:-0.837441 20:-0.509446 21:0.0540314 22:0.00900901 23:0.759908 24:0.273748 25:0.340988 26:-0.884527 27:-0.749499 28:-0.533196 29:0.833591 30:0.361702 31:0.622037 32:0.882437 33:0.52464 34:-0.869188 35:-0.571081 36:-0.0363636 37:0.460381 38:0.438596 39:1 40:0.594598 41:0.114067 42:-0.967731 43:-0.963474 44:-0.506424 45:-0.819201 46:-0.740891 47:-0.892173 48:-0.9192 49:0.216414 50:-0.921513 51:-0.917733 52:-0.276823 53:-0.312269 54:-0.529412 55:0.228153 56:-0.00940692 57:0.301066 58:-0.87469 59:-0.855646 60:-0.504768 61:0.372578 62:0.00452489 63:0.747666 64:0.744956 65:0.285862 66:-0.874704 67:-0.76791 68:-0.487557 69:0.688956 70:0.144509 71:0.764471 72:0.806846 73:0.597249 74:-0.848191 75:-0.553122 76:0.0761021 77:0.674143 78:-0.0819672 79:0.641849 80:0.853124 81:0.108174 82:-0.968938 83:-0.964158 84:-0.529386 85:-0.815763 86:-0.724696 87:-0.892595 88:-0.918619 89:0.260739 90:-0.920765 91:-0.917542 92:-0.302308 93:-0.294566 94:-0.518182 95:0.289381 96:-0.0344009 97:0.342192 98:-0.869778 99:-0.851639 100:-0.511183 101:0.379185 102:0.045045 103:0.667298 104:0.696331 105:0.358868 106:-0.87299 107:-0.735226 108:-0.53977 109:0.517673 110:0.0409357 111:0.499951 112:0.646539 113:0.686772 114:-0.879662 115:-0.528673 116:0.340909 117:0.622472 118:0.0666667 119:0.676527 120:0.77143 
-637.2836304623445 1:0.110832 2:-0.969703 3:-0.965474 4:-0.480026 5:-0.822975 6:-0.811024 7:-0.921324 8:-0.926558 9:0.20841 10:-0.924065 11:-0.919257 12:-0.26122 13:-0.332255 14:-0.665158 15:-0.222246 16:-0.251055 17:0.316079 18:-0.867038 19:-0.832346 20:-0.528018 21:0.0756961 22:-0.135135 23:0.748414 24:0.344128 25:0.30831 26:-0.838358 27:-0.708654 28:-0.523932 29:0.833973 30:0.329787 31:0.670531 32:0.922041 33:0.480167 34:-0.776025 35:-0.481003 36:0.0959596 37:0.723211 38:0.415205 39:0.520402 40:0.604721 41:0.129801 42:-0.97215 43:-0.966651 44:-0.477625 45:-0.825134 46:-0.805668 47:-0.920316 48:-0.926736 49:0.231272 50:-0.927346 51:-0.921761 52:-0.256968 53:-0.332431 54:-0.665158 55:0.013613 56:-0.0515072 57:0.31853 58:-0.864353 59:-0.839343 60:-0.52829 61:0.370297 62:-0.140271 63:0.631843 64:0.756282 65:0.216263 66:-0.823264 67:-0.734659 68:-0.557643 69:0.824798 70:0.132948 71:0.87753 72:0.991028 73:0.514139 74:-0.7844 75:-0.523161 77:0.684418 78:-0.131148 79:0.53801 80:0.817993 81:0.125479 82:-0.974536 83:-0.968545 84:-0.499347 85:-0.817246 86:-0.765182 87:-0.921575 88:-0.926191 89:0.283328 90:-0.933311 91:-0.927405 92:-0.26 93:-0.309967 94:-0.627273 95:0.0274531 96:-0.0966837 97:0.359232 98:-0.875182 99:-0.852821 100:-0.523501 101:0.511422 102:-0.045045 103:0.599508 104:0.842192 105:0.208824 106:-0.817727 107:-0.746897 108:-0.567784 109:0.62902 110:0.111111 111:0.744734 112:0.855698 113:0.616829 114:-0.823703 115:-0.498825 116:0.189024 117:0.699255 118:0.04 119:0.667879 120:0.841906 
2994.357368552925 1:0.0964751 2:-0.878831 3:-0.870528 4:-0.706467 5:-0.827597 6:-0.669291 7:-0.837751 8:-0.912584 9:0.234292 10:-0.798016 11:-0.785432 12:-0.153049 13:-0.322725 14:-0.348416 15:0.276838 16:-0.174756 17:0.284122 18:-0.775734 19:-0.744988 20:-0.184758 21:0.0159222 22:0.117117 23:0.856839 24:0.243002 25:0.282341 26:-0.829835 27:-0.716027 28:-0.379825 29:0.770429 30:0.340426 31:0.58712 32:0.817544 33:0.561713 34:-0.843635 35:-0.515015 36:0.0444444 37:0.492274 38:0.356725 39:0.778473 40:0.542742 41:0.110047 42:-0.886355 43:-0.876328 44:-0.717324 45:-0.818845 46:-0.643725 47:-0.83851 48:-0.909525 49:0.230844 50:-0.803762 51:-0.79423 52:-0.189003 53:-0.312615 54:-0.348416 55:0.518309 56:0.0202788 57:0.31504 58:-0.788555 59:-0.760768 60:-0.20534 61:0.369859 62:0.104072 63:0.895056 64:0.772714 65:0.277159 66:-0.846537 67:-0.740411 68:-0.338243 69:0.705962 70:0.190751 71:0.814907 72:0.831148 73:0.661821 74:-0.855983 75:-0.52216 76:0.156381 77:0.645922 78:-0.0327869 79:0.532463 80:0.758595 81:0.138044 82:-0.884112 83:-0.866359 84:-0.714845 85:-0.819574 86:-0.62753 87:-0.841431 88:-0.911171 89:0.317907 90:-0.800239 91:-0.782585 92:-0.180769 93:-0.279346 94:-0.327273 95:0.615511 96:0.013487 97:0.346714 98:-0.778574 99:-0.753655 100:-0.206483 101:0.41521 102:0.189189 103:0.841289 104:0.757435 105:0.359809 106:-0.84575 107:-0.705086 108:-0.392696 109:0.603225 110:0.134503 111:0.858861 112:0.886832 113:0.763795 114:-0.840722 115:-0.427314 116:0.039357 117:0.680686 118:0.133333 119:0.981176 120:0.960624 
-31.47932750132001 1:-0.549768 2:-0.766912 3:-0.890159 4:-0.818142 5:-0.811794 6:-0.661417 7:-0.834304 8:-0.905233 9:-0.128426 10:-0.746686 11:-0.803332 12:-0.367856 13:-0.300466 14:-0.357466 15:0.252577 16:-0.15848 17:0.250864 18:-0.7312 19:-0.706397 20:-0.23407 21:0.0487066 22:0.153153 23:0.955994 24:0.299286 25:0.234143 26:-0.762559 27:-0.660441 28:-0.303139 29:0.722764 30:0.308511 31:0.605103 32:0.799856 33:0.514633 34:-0.777314 35:-0.461698 36:0.20404 37:0.443015 38:0.298246 39:0.615819 40:0.442144 41:-0.554643 42:-0.772743 43:-0.896046 44:-0.824989 45:-0.814322 46:-0.668016 47:-0.837135 48:-0.905777 49:-0.13368 50:-0.750282 51:-0.810828 52:-0.401298 53:-0.330961 54:-0.366516 55:0.59492 56:0.0334133 57:0.285545 58:-0.736291 59:-0.712102 60:-0.268277 61:0.299486 62:0.104072 63:0.965166 64:0.739205 65:0.263126 66:-0.760358 67:-0.637339 68:-0.336211 69:0.778806 70:0.156069 71:0.943589 72:0.972254 73:0.544863 74:-0.69618 75:-0.390155 76:0.141995 77:0.704489 78:-0.0163934 79:0.497955 80:0.788924 81:-0.599516 82:-0.771931 83:-0.900497 84:-0.835873 85:-0.801463 86:-0.619433 87:-0.837618 88:-0.902776 89:-0.153723 90:-0.739962 91:-0.818763 92:-0.424615 93:-0.24946 94:-0.272727 95:0.644707 96:0.035641 97:0.221022 98:-0.7218 99:-0.729943 100:-0.294003 101:0.479982 102:0.261261 103:0.859416 104:0.798409 105:0.315341 106:-0.777235 107:-0.642286 108:-0.415708 109:0.753554 110:0.22807 111:0.629499 112:0.863644 113:0.589287 114:-0.730964 115:-0.403394 116:0.21286 117:0.412621 118:0.08 119:0.7533 120:0.626352 
8.891003366410674 1:-0.0793216 2:-0.838235 3:-0.863532 4:-0.871993 5:-0.816045 6:-0.732283 7:-0.832867 8:-0.902273 9:0.0896024 10:-0.744296 11:-0.758325 12:-0.563483 13:-0.325608 14:-0.402715 15:0.18688 16:-0.191072 17:0.364609 18:-0.702025 19:-0.637768 20:-0.414025 21:-0.0916158 22:0.018018 23:0.92865 24:0.205076 25:0.389542 26:-0.686748 27:-0.485571 28:-0.192486 29:0.501505 30:0.159574 31:0.621142 32:0.678085 33:0.515039 34:-0.692849 35:-0.358328 36:0.787374 37:0.236043 38:0.274854 39:0.870939 40:0.388178 41:-0.0396012 42:-0.850094 43:-0.867214 44:-0.875498 45:-0.808801 46:-0.700405 47:-0.834601 48:-0.900538 49:0.187196 50:-0.764822 51:-0.760776 52:-0.564719 53:-0.345489 54:-0.384615 55:0.541595 56:0.00456704 57:0.451599 58:-0.717854 59:-0.63944 60:-0.371265 61:0.324311 62:0.0678733 63:0.934183 64:0.763939 65:0.356205 66:-0.678124 67:-0.486295 68:-0.127476 69:0.747195 70:0.017341 71:0.702921 72:0.874932 73:0.445224 74:-0.589731 75:-0.328351 76:0.583759 77:0.8875 78:-0.0819672 79:0.244073 80:0.82523 81:0.0283116 82:-0.856114 83:-0.855268 84:-0.878102 85:-0.805271 86:-0.692308 87:-0.842398 88:-0.90127 89:0.29495 90:-0.766064 91:-0.748388 92:-0.574615 93:-0.307483 94:-0.336364 95:0.523046 96:-0.0450426 97:0.495558 98:-0.717183 99:-0.63585 100:-0.402269 101:0.457603 102:0.171171 103:0.806706 104:0.788808 105:0.436961 106:-0.685165 107:-0.458224 108:-0.273137 109:0.726688 110:0.157895 111:0.718378 112:0.912675 113:0.694975 114:-0.643797 115:-0.237073 116:0.613636 117:0.385241 118:-0.0933333 119:0.440396 120:0.486961 
-272.1024027275961 1:-0.184731 2:-0.862817 3:-0.91237 4:-0.931141 5:-0.778933 6:-0.669291 7:-0.830254 8:-0.888362 9:-0.127384 10:-0.76539 11:-0.825453 12:-0.736095 13:-0.268629 14:-0.266968 15:0.271885 16:-0.150309 17:0.0415939 18:-0.668706 19:-0.703895 20:-0.564521 21:0.0679959 22:0.162162 23:0.921873 24:0.300457 25:0.0792906 26:-0.518635 27:-0.459012 28:-0.311889 29:0.483147 30:0.425532 31:1 32:0.792702 33:0.443375 34:-0.522925 35:-0.183618 36:0.179293 37:0.527393 38:0.333333 39:0.277204 40:0.345169 41:-0.195422 42:-0.867004 43:-0.919649 44:-0.934426 45:-0.793709 46:-0.700405 47:-0.830223 48:-0.892143 49:-0.134855 50:-0.771572 51:-0.836582 52:-0.750286 53:-0.294165 54:-0.294118 55:0.522832 56:0.0221888 57:0.0743753 58:-0.681686 59:-0.717359 60:-0.589955 61:0.227147 62:0.113122 63:0.751897 64:0.559203 65:-0.015173 66:-0.547035 67:-0.529506 68:-0.363636 69:0.593971 70:0.202312 71:0.609676 72:0.630173 73:0.163372 74:-0.422144 75:-0.317258 76:0.192111 77:0.290477 78:-0.278689 79:0.372445 80:0.416407 81:-0.18334 82:-0.865785 83:-0.912268 84:-0.932956 85:-0.785585 86:-0.668016 87:-0.839496 88:-0.892902 89:-0.0582371 90:-0.763849 91:-0.826523 92:-0.733077 93:-0.273396 94:-0.263636 95:0.505191 96:-0.0403688 97:0.081331 98:-0.661458 99:-0.711917 100:-0.557212 101:0.390344 102:0.207207 103:0.815504 104:0.712403 105:-0.0144359 106:-0.512893 107:-0.522244 108:-0.381691 109:0.61262 110:0.28655 111:0.575327 112:0.696132 113:0.102514 114:-0.382542 115:-0.311644 116:0.640798 117:0.724734 118:0.293333 119:0.299824 120:0.603007 
1637.089255209935 1:0.137146 2:-0.962565 3:-0.955121 4:-0.42132 5:-0.864057 6:-0.80315 7:-0.929448 8:-0.946075 9:0.1639 10:-0.890997 11:-0.89256 12:0.0418105 13:-0.502239 14:-0.683258 15:-0.294656 16:-0.443297 17:0.269865 18:-0.82671 19:-0.803379 20:-0.260327 21:-0.0810742 22:-0.171171 23:0.416793 24:0.0749529 25:0.334493 26:-0.865341 27:-0.730686 28:-0.479156 29:0.71764 30:0.212766 31:0.488189 32:0.758138 33:0.638298 34:-0.890794 35:-0.525199 36:-0.0752525 37:0.391387 38:0.298246 39:0.82025 40:0.489158 41:0.153927 42:-0.963964 43:-0.955253 44:-0.432875 45:-0.863936 46:-0.805668 47:-0.934887 48:-0.94703 49:0.171426 50:-0.890453 51:-0.893212 52:0.0400916 53:-0.500259 54:-0.701357 55:-0.193893 56:-0.323053 57:0.272103 58:-0.820957 59:-0.807282 60:-0.225048 61:0.170346 62:-0.18552 63:0.353657 64:0.424829 65:0.31047 66:-0.856946 67:-0.734426 68:-0.42966 69:0.69904 70:0.00578035 71:0.572731 72:0.768836 73:0.70347 74:-0.870528 75:-0.508729 76:-0.0784223 77:0.712324 78:-0.0163934 79:0.378214 80:0.730041 81:0.142011 82:-0.963394 83:-0.954619 84:-0.444928 85:-0.86164 86:-0.781377 87:-0.933574 88:-0.946708 89:0.185311 90:-0.881529 91:-0.890004 92:0.0330769 93:-0.47644 94:-0.663636 95:-0.141955 96:-0.335268 97:0.24564 98:-0.795596 99:-0.800343 100:-0.249919 101:0.235977 102:-0.135135 103:0.349646 104:0.470169 105:0.337205 106:-0.834639 107:-0.700774 108:-0.470235 109:0.540321 110:0.0175439 111:0.59777 112:0.727375 113:0.909447 114:-0.91249 115:-0.429693 116:0.0482262 117:0.575683 118:0.2 119:0.7968 120:0.759245 
-42.76405989593199 1:0.12062 2:-0.976995 3:-0.972245 4:-0.490179 5:-0.89213 6:-0.905512 7:-0.978046 8:-0.968463 9:0.230845 10:-0.95813 11:-0.952228 12:-0.162255 13:-0.616888 14:-0.9819 15:-0.766189 16:-0.651596 17:0.334622 18:-0.911745 19:-0.879816 20:-0.351905 21:-0.293031 22:-0.585586 23:-0.0739584 24:-0.169936 25:0.336215 26:-0.861049 27:-0.727426 28:-0.38703 29:0.243347 30:-0.148936 31:0.15222 32:0.302876 33:0.719774 34:-0.905532 35:-0.492215 36:-0.0570707 37:0.523764 38:0.345029 39:0.46689 40:0.429981 41:0.143791 42:-0.978804 43:-0.972443 44:-0.483828 45:-0.895793 46:-0.910931 47:-0.980071 48:-0.969864 49:0.266696 50:-0.962183 51:-0.954199 52:-0.163039 53:-0.611986 54:-0.9819 55:-0.710713 56:-0.563875 57:0.357395 58:-0.914786 59:-0.888273 60:-0.350922 61:-0.084794 62:-0.61086 63:-0.182048 64:0.0896152 65:0.345401 66:-0.866314 67:-0.730958 68:-0.371762 69:0.447828 70:-0.213873 71:0.491035 72:0.58167 73:0.669328 74:-0.869598 75:-0.530549 76:-0.0733179 77:0.287817 78:0.0819672 79:1 80:0.654865 81:0.138618 82:-0.980037 83:-0.973305 84:-0.495429 85:-0.895659 86:-0.88664 87:-0.981532 88:-0.971251 89:0.3122 90:-0.96457 91:-0.956942 92:-0.154615 93:-0.607946 94:-0.972727 95:-0.725431 96:-0.594386 97:0.384197 98:-0.917907 99:-0.896565 100:-0.337439 101:0.0234869 102:-0.540541 103:-0.236455 104:0.135044 105:0.41743 106:-0.884325 107:-0.723829 108:-0.393197 109:0.416911 110:-0.111111 111:0.485444 112:0.599751 113:0.890677 114:-0.972867 115:-0.525016 116:0.260532 117:0.366391 118:-0.186667 119:0.802774 120:0.673685 
480.4739527725584 1:-0.346622 2:-0.366761 3:-0.481612 4:-0.515339 5:-0.58739 6:-0.314961 7:-0.640308 8:-0.764208 9:-0.159021 10:-0.42356 11:-0.51143 12:-0.30725 13:-0.198438 14:-0.176471 15:0.199426 16:-0.138172 17:0.190021 18:-0.614759 19:-0.600546 20:-0.513929 21:-0.00216432 22:0.036036 23:0.831148 24:0.242089 25:0.378167 26:-0.764712 27:-0.577856 28:-0.535769 29:0.532454 30:0.170213 31:0.524138 32:0.644423 33:0.663401 34:-0.861835 35:-0.471144 36:-0.0136364 37:0.46335 38:0.22807 39:0.239629 40:0.298338 41:-0.27606 42:-0.398503 43:-0.486408 44:-0.474081 45:-0.734819 46:-0.481781 47:-0.782101 48:-0.866093 49:-0.0807165 50:-0.430584 51:-0.500106 52:-0.311187 53:-0.271086 54:-0.257919 55:0.532546 56:0.038301 57:0.105195 58:-0.530548 59:-0.554228 60:-0.552448 61:0.390813 62:0.176471 63:0.968103 64:0.798977 65:0.31748 66:-0.70264 67:-0.523049 68:-0.589639 69:0.743782 70:0.190751 71:0.911376 72:0.912123 73:0.725306 74:-0.862814 75:-0.475276 76:-0.315081 77:0.843725 78:0.0163934 79:0.662262 80:0.999049 81:-0.402992 82:-0.277451 83:-0.397517 84:-0.436221 85:-0.630687 86:-0.40081 87:-0.680246 88:-0.788864 89:-0.158261 90:-0.363756 91:-0.476782 92:-0.286923 93:-0.203131 94:-0.154545 95:0.573456 96:0.0191859 97:0.10725 98:-0.548495 99:-0.589988 100:-0.570827 101:0.458112 102:0.279279 103:0.929221 104:0.805906 105:0.311652 106:-0.731476 107:-0.579247 108:-0.612306 109:0.606157 110:0.274854 111:0.89318 112:0.864784 113:0.76143 114:-0.890782 115:-0.492233 116:0.0526608 117:0.708161 118:0.0533333 119:0.75786 120:0.893269 
-92.13096261542458 1:-0.227032 2:-0.280212 3:-0.366826 4:-0.553299 5:-0.539704 6:-0.133858 7:-0.635469 8:-0.754379 9:-0.175285 10:-0.263833 11:-0.367393 12:-0.281933 13:-0.215554 14:-0.149321 15:0.110679 16:-0.19412 17:0.0836089 18:-0.470755 19:-0.490538 20:-0.486391 21:-0.0220129 22:0.036036 23:0.717217 24:0.180063 25:0.294738 26:-0.68636 27:-0.52823 28:-0.524447 29:0.451798 30:0.212766 31:0.528449 32:0.571184 33:0.586017 34:-0.805302 35:-0.445701 36:-0.0671717 37:0.778161 38:0.54386 39:0.737853 40:0.725287 41:-0.222452 42:-0.273509 43:-0.353624 44:-0.519716 45:-0.616345 46:-0.0769231 47:-0.698064 48:-0.814408 49:0.0323695 50:-0.243072 51:-0.287719 52:-0.291333 53:-0.22534 54:-0.149321 55:0.286703 56:-0.041548 57:0.14203 58:-0.383865 59:-0.391085 60:-0.472982 61:0.391819 62:0.131222 63:0.632869 64:0.644379 65:0.2314 66:-0.601072 67:-0.448447 68:-0.519045 69:0.607216 70:0.156069 71:0.678396 72:0.689181 73:0.662277 74:-0.790919 75:-0.427605 76:-0.138283 77:0.692211 78:0.0491803 79:0.397387 80:0.709134 81:-0.391213 82:-0.160643 83:-0.284642 84:-0.435786 85:-0.497684 86:-0.214575 87:-0.531311 88:-0.686336 89:-0.178607 90:-0.276365 91:-0.402459 92:-0.280769 93:-0.151405 94:-0.0363636 95:0.51085 96:0.0121919 97:0.0798274 98:-0.509764 99:-0.561293 100:-0.563695 101:0.400282 102:0.243243 103:0.728767 104:0.661947 105:0.259986 106:-0.703138 107:-0.575316 108:-0.612806 109:0.432407 110:0.0877193 111:0.372462 112:0.491838 113:0.729787 114:-0.869941 115:-0.48604 116:0.0909091 117:0.51793 118:-0.0533333 119:0.698712 120:0.721654 
-47.29375382145422 1:-0.169493 2:-0.174728 3:-0.246922 4:-0.49062 5:0.0613721 6:-0.220472 7:0.111914 8:0.0225126 9:-0.0852099 10:-0.105417 11:-0.190962 12:-0.295742 13:0.524277 14:-0.0678733 15:0.374501 16:0.669883 17:0.10941 18:-0.256067 19:-0.262451 20:-0.529939 21:0.0313502 22:0.144144 23:0.125995 24:-0.0492721 25:0.217662 26:-0.494512 27:-0.340858 28:-0.583119 29:-0.0835291 30:-0.117021 31:-0.203579 32:-0.140124 33:0.549393 34:-0.735671 35:-0.378916 36:-0.059596 37:0.0561101 38:-0.146199 39:0.042722 40:-0.0299285 41:-0.186324 42:-0.0868885 43:-0.162421 44:-0.498892 45:-0.352242 46:0.0121457 47:-0.343063 48:-0.566295 49:0.0289418 50:-0.0822074 51:-0.132751 52:-0.255441 53:-0.0979054 54:0.0497738 55:0.137811 56:-0.0343426 57:0.152476 58:-0.298966 59:-0.299861 60:-0.472982 61:0.190236 62:0.0769231 63:0.242001 64:0.273868 65:0.23098 66:-0.558466 67:-0.396671 68:-0.493144 69:0.425719 70:-0.0289017 71:0.343118 72:0.427546 73:0.589917 74:-0.740727 75:-0.4104 76:-0.165197 77:0.522032 78:-0.163934 79:0.144271 80:0.46589 81:-0.114572 82:-0.0686734 83:-0.102076 84:-0.387462 85:-0.0589389 86:0.0202429 87:0.0150362 88:-0.216759 89:-0.0257833 90:-0.0549287 91:-0.14494 92:-0.275385 93:0.0278891 94:0.181818 95:0.459609 96:0.105299 97:0.184184 98:-0.247431 99:-0.252543 100:-0.572123 101:0.221223 102:0.198198 103:0.506399 104:0.401654 105:0.115179 106:-0.481353 107:-0.402181 108:-0.587794 109:0.417765 110:0.0994152 111:0.174086 112:0.365928 113:0.451472 114:-0.650629 115:-0.394141 116:0.293792 117:0.652704 118:-0.0533333 119:0.0732003 120:0.499316 
-582.3514597412716 1:0.0501891 2:-0.739154 3:-0.73862 4:-0.235047 5:-0.779912 6:-0.385827 7:-0.832466 8:-0.905932 9:0.192327 10:-0.764928 11:-0.760521 12:0.154584 13:-0.339936 14:-0.375566 15:0.224178 16:-0.200909 17:0.325245 18:-0.83042 19:-0.791758 20:-0.358309 21:0.00971195 22:0.0630631 23:0.853759 24:0.252926 25:0.390967 26:-0.88643 27:-0.728914 28:-0.473495 29:0.711369 30:0.351064 31:0.624449 32:0.788596 33:0.538713 34:-0.843086 35:-0.528281 36:-0.00505051 37:0.591711 38:0.438596 39:0.811688 40:0.623534 41:0.0627446 42:-0.73006 43:-0.725928 44:-0.23128 45:-0.780135 46:-0.368421 47:-0.835346 48:-0.906514 49:0.173375 50:-0.766873 51:-0.768313 52:0.124093 53:-0.32711 54:-0.348416 55:0.502581 56:-0.00213408 57:0.341713 58:-0.842624 59:-0.811597 60:-0.347107 61:0.332558 62:0.122172 63:0.874631 64:0.717817 65:0.402432 66:-0.898149 67:-0.742094 68:-0.441849 69:0.675337 70:0.109827 71:0.687704 72:0.768628 73:0.671714 74:-0.848004 75:-0.499356 76:-0.0886311 77:0.743097 78:-0.0327869 79:0.479214 80:0.817111 81:0.0462467 82:-0.69453 83:-0.687296 84:-0.235525 85:-0.778029 86:-0.352227 87:-0.835108 88:-0.906061 89:0.212688 90:-0.74314 91:-0.746446 92:0.135385 93:-0.318871 94:-0.327273 95:0.6119 96:-0.0318424 97:0.359459 98:-0.819792 99:-0.793612 100:-0.365316 101:0.363229 102:0.153153 103:0.850639 104:0.727453 105:0.404648 106:-0.873598 107:-0.711933 108:-0.515758 109:0.694754 110:0.181287 111:0.7308 112:0.883532 113:0.823886 114:-0.908357 115:-0.480725 116:0.217849 117:0.649601 118:0.16 119:0.964397 120:0.917275 
